and -0.204005 -1.825939 0.541065 0.670185 -0.886700 -2.010456 0.024680 0.205330 0.230154 0.715410 1.184861 0.549401 0.827038 1.717050 -0.682287 -0.443271 0.641093 0.666222 0.679856 -0.166486 -0.407175 0.030115 -0.598200 -0.573536 -1.470073 -0.419535 1.980085 -1.193124 0.867029 -1.419403 0.593629 -0.873174 -0.284945 1.473841 -0.523064 0.919053 -1.309863 -0.159807 3.418941 -0.622592 -0.484366 1.228374 0.633491 1.330143 -1.458711 -0.451898 1.045103 -2.111790 0.925744 0.261138
that -0.442210 -0.388727 0.762752 -0.425548 0.924644 1.398893 -0.134822 1.040150 -1.150534 2.152115 -1.025363 2.008676 1.651835 -0.561762 0.130752 0.393013 0.104874 0.011048 1.576899 -0.394665 0.099040 0.118523 1.584683 -0.313741 -1.355755 0.338464 0.885734 -0.193979 -0.557719 -0.767500 1.966790 -0.025285 0.604959 0.199175 0.380709 -0.690541 -1.223611 0.890545 2.194317 1.293394 0.153707 -1.159558 0.686915 0.412097 -0.804001 -0.795976 1.965175 -0.729504 -0.163131 0.406642
the 0.175461 -0.734666 1.161694 -0.863089 -1.220600 -0.944645 -0.519467 1.905646 -0.509419 -0.352258 0.308056 3.079170 0.435190 1.646452 -1.643377 0.622398 0.792836 -1.340993 0.427007 -1.344735 0.342896 0.641045 -0.428618 -0.410436 -0.987139 0.106236 -0.543665 0.373300 -0.831007 1.608590 -0.204072 -1.064470 0.323930 0.622246 0.598639 -0.173173 0.782084 -0.140087 0.885860 0.919222 1.674047 -0.696792 0.878013 1.475701 0.065454 -1.079117 2.814186 -0.537109 0.992615 1.610814
of -0.407816 -0.410582 1.280597 0.985408 -0.291735 -0.574185 -1.088365 1.054867 1.761264 1.494776 -0.090267 1.001085 1.448621 -0.755564 -2.329401 0.198495 1.444370 0.533689 0.883010 -0.650725 0.274029 0.992913 1.534171 -1.234628 -0.708204 -0.000059 -1.036989 -1.064760 1.021683 -0.262297 -0.945492 -0.978212 -0.649145 0.053617 -0.428983 -0.045656 0.366774 0.665411 2.226262 0.388771 -0.142741 -0.155190 0.675671 0.589626 -0.061513 0.261022 1.839706 1.611385 0.955885 1.088230
And 0.681340 -0.273241 0.342844 -0.079010 -0.446048 -0.847811 -1.473139 1.207904 -0.744383 0.620569 -0.968895 1.381793 1.432049 -0.329869 -1.388074 -1.754951 1.262343 -0.773748 1.146706 -0.171572 -0.566905 -0.029299 0.106216 -0.056639 -1.703024 -0.640431 1.285927 0.913593 0.107255 -1.291046 -0.487682 -0.807025 1.487345 0.570926 -0.840644 0.301314 -0.843589 0.394225 2.117449 -0.646021 0.862495 0.488381 0.651518 0.348725 0.009147 -1.399140 0.355495 -0.332279 -1.248124 0.504291
to -0.216770 0.438304 0.979744 0.015152 -1.497261 -0.727798 0.475517 1.496590 -0.601369 0.585873 -0.086028 1.263708 2.499324 -0.122718 -1.376991 -0.157796 0.557609 0.822581 -0.112747 -1.015841 -0.387038 1.664494 0.085845 -1.287876 -0.153310 -0.490131 0.765003 -0.425274 -0.574423 -0.135040 0.336865 0.026018 -0.210309 1.756019 1.132397 0.754072 -0.591061 0.539774 1.150847 0.346042 1.047183 -0.995648 0.001421 0.324369 0.177081 -0.991694 -0.892710 -1.381231 -1.456635 -0.926013
I -1.392927 -0.702743 -0.029765 0.401923 1.338251 0.813934 -0.305183 0.218933 0.081528 1.537047 -0.687699 0.068945 1.682715 -0.914823 -0.813614 0.109350 -0.216615 0.578655 0.194828 -0.700789 -1.490784 1.421957 -0.127214 0.812564 0.077375 -0.819279 0.276666 -0.073436 -2.010068 -0.126625 -0.832416 0.137172 1.009325 1.692836 -0.803308 0.816135 -0.361069 -1.313783 2.127714 -1.211747 0.943174 -1.744796 1.633343 0.400209 -0.302839 -0.599458 1.865356 -0.694486 -0.172627 -0.701149
in -0.297943 0.732154 1.345325 0.412569 0.176342 -0.308341 -0.308222 0.767859 -0.182434 0.583021 -0.681151 0.173468 -0.273837 -0.028067 -1.570276 -0.684416 0.545267 1.061568 1.599992 -0.425123 -0.470746 0.621756 -0.732462 0.531999 0.093402 -0.706258 1.184023 0.203469 0.153236 -0.221207 -0.350116 -0.394140 -0.058643 -0.428916 0.885520 -1.442436 -0.004974 0.855038 2.248028 0.743739 1.531129 -0.849851 1.002827 1.971361 -0.061968 -0.459048 0.241894 -1.152179 0.602221 1.358545
his -0.001678 0.903360 0.020832 0.742739 0.065070 -0.733142 -0.453543 0.446300 -0.305980 0.571939 -0.672353 -1.418317 1.502594 -0.029677 -1.646347 1.959539 1.431287 0.293128 -0.298429 -0.401466 -0.741724 0.251070 0.850607 -0.767097 -1.574213 1.128075 1.034960 -0.080517 -0.789799 -0.581466 -0.501595 -1.377138 -0.260232 -0.423761 0.026158 0.035584 0.085994 0.462268 1.737151 1.417476 1.357285 0.186851 -0.560594 2.146833 0.036391 -1.067957 -0.113948 -0.480151 0.325294 1.263514
a 0.244925 -0.711522 -1.034282 -0.928173 -0.052706 -0.585385 -0.593810 1.643193 -1.540788 0.260688 1.410950 0.058876 0.697064 -1.386671 -2.428032 0.233925 -0.323456 0.561324 1.081349 -0.579527 0.019553 0.841937 -0.504135 -1.234916 -0.682308 -0.315454 1.528337 -1.143878 -1.117897 0.526226 0.105253 -0.660147 0.255069 -0.546499 -0.854201 -0.427608 0.698631 0.940689 2.099208 0.636898 0.443389 0.279634 1.568166 -1.278685 -1.004278 -1.296633 0.047582 0.994444 0.192775 0.907073
he -0.976832 -0.497697 0.159232 -1.003298 -0.364082 -0.261068 -0.263950 0.822496 -0.217150 0.446813 -1.663160 0.248796 1.006878 -0.655727 -0.370277 1.606701 0.805768 -0.081213 -0.000101 -0.431075 -0.768095 0.170124 -1.016475 0.132832 -1.330091 -0.085674 2.293045 1.115894 -1.420795 -0.510779 -0.108853 -0.289416 0.735565 0.228931 0.754698 0.282367 -1.120374 0.323303 2.211621 -0.309931 1.067969 0.661834 0.725723 1.339642 0.247437 -0.837418 -0.003487 0.402272 -0.456605 0.712971
as -0.153835 -0.205028 1.595682 -1.944624 -0.096801 0.057025 0.978212 0.594848 0.136232 0.093020 0.137794 -0.114303 -0.144255 -0.018774 -0.981950 0.312159 -0.235228 0.007364 0.001590 -0.613770 -2.331989 0.190679 0.604078 -0.240432 0.228698 -0.123526 0.596606 -0.519047 -0.614886 -1.190693 0.611314 0.083175 0.337456 0.216901 0.959575 0.979100 -0.519067 0.106765 2.747677 -0.779681 1.789106 -0.874768 0.761919 -0.638722 -1.154955 -1.192189 0.590624 0.159019 0.365948 0.735186
is 0.067067 -0.826060 0.598367 0.412335 -0.831746 -0.318080 0.761279 1.985728 -0.992212 0.541059 0.573405 0.740209 1.123119 -0.475876 -0.083091 0.252758 0.078492 0.899197 1.305579 -0.543643 -0.192055 1.213435 1.236945 -0.530696 0.127560 -0.397918 1.015962 0.184274 0.156986 -0.428917 -0.208725 0.417078 -1.601062 0.367861 0.540439 -0.409772 -0.411822 -1.166426 1.862539 0.506560 0.749762 -0.942140 1.031232 0.202208 0.538197 -0.946212 0.762107 -0.002423 -0.324772 0.030450
for -0.917688 0.357232 0.751419 -0.045436 -0.710496 -1.287652 -0.249272 1.030801 -0.294318 0.662260 -0.615914 0.406653 1.362020 -0.130692 -0.811361 0.051873 0.264186 0.809304 -0.185824 -0.659629 -0.459212 1.365046 0.633692 -1.422985 -0.402197 -0.790363 -0.374168 -0.048063 0.361052 -0.356830 0.035871 0.041475 0.106398 1.081154 0.702413 0.576018 -0.599608 0.339399 2.134475 -0.872403 0.403460 -1.153653 0.236963 0.016255 0.591255 -0.929118 -0.222299 0.113288 -0.662841 -0.182321
was -0.534373 -0.341915 0.772103 -0.417180 -0.329075 -0.627340 0.176353 1.174465 -0.813858 0.630401 0.577586 0.465986 0.073816 -0.420182 -0.387598 1.739207 0.067358 0.173844 0.988457 0.101806 -0.605077 -0.621313 -0.127979 -1.089339 -0.107732 -0.841590 1.206032 -0.597893 -0.713833 0.139284 0.464739 -0.212422 0.394024 0.320249 -0.159121 -0.622783 0.495980 0.650838 2.286854 0.128197 0.742132 -0.929165 0.210116 1.678401 -0.032205 -1.165866 0.281492 0.603046 0.008652 -0.922984
this -0.918334 0.205495 1.650753 -1.137543 0.344769 -0.099488 -0.935094 1.247163 -2.143136 0.466462 0.674164 2.253323 -0.209152 -0.110160 -0.966272 0.156749 1.744216 0.787931 0.088298 -1.111592 -0.596109 0.157828 0.149011 0.265877 -0.180569 0.190230 0.480282 0.378049 -0.089997 -0.238960 -0.667872 0.458766 -0.665895 0.275534 -0.458626 -1.743155 0.426853 0.221762 1.219889 0.749570 0.351993 0.275490 1.166005 0.441121 0.436601 -0.408870 0.107215 -0.126363 0.357363 0.326044
it 0.233146 -0.298093 0.209611 -1.211345 -0.206526 0.102029 -0.484858 0.253321 0.036332 0.615452 -0.354665 0.543524 0.793340 -0.715277 -1.017708 0.900928 -0.232997 0.163169 0.842647 -0.054244 -0.118383 1.182612 0.790478 -0.399101 0.116161 -0.290122 1.672004 0.806743 -0.864880 -0.126816 0.555636 -0.076940 -0.596218 1.184548 -0.195529 0.331105 -1.579538 -0.132010 1.714763 0.178559 0.417446 -1.135823 0.334035 -0.106741 -0.482032 -0.702618 0.492662 0.476553 -0.610576 -0.156994
That -0.933109 0.111358 0.147776 0.228930 0.017139 0.843890 -1.479392 1.158501 -0.407835 0.463375 -0.901105 0.799353 1.380111 -0.654143 -0.825663 0.134161 -0.178688 -0.362682 0.294171 -0.476763 0.101100 -0.678333 -0.132963 -0.544438 0.349355 -0.718509 0.360462 -0.102191 0.162503 0.010833 0.651278 -0.570784 0.562771 -0.141950 0.231720 0.268725 -0.282644 0.074425 2.260086 0.687904 0.222869 -0.661253 1.040459 1.042278 -0.483866 -0.604999 0.898947 0.003250 -0.176729 0.360132
hym 0.054505 -0.482773 0.610123 -0.644474 -0.107697 0.346050 -0.125946 0.667754 -0.630964 0.580838 -0.780124 0.786596 1.731395 -0.184754 -1.574330 0.778814 1.035236 0.001289 -0.345025 0.295299 -0.560634 -0.276994 -0.339693 -0.219258 -0.166218 0.348652 1.414369 0.006719 -0.531597 -0.458540 -0.208993 -0.601041 0.583831 1.072023 -0.231402 1.099635 -0.235296 -0.228832 1.082838 0.211998 0.358690 1.053967 0.067456 0.107818 -0.516690 -0.646903 -0.007683 -0.328480 -0.780515 -0.285132
For -0.315200 -0.004900 -0.019561 0.233299 -0.267160 0.645714 -0.126090 1.130618 -0.680080 0.784957 -1.310919 0.534258 0.952465 -0.138389 -0.350607 0.248493 -0.239842 -0.702187 1.073830 -1.010390 -0.124031 -0.121421 1.318249 -0.630911 -0.293737 -0.139434 0.089676 0.641829 -0.103387 -0.445622 0.517117 0.648667 0.437666 0.023159 0.174958 -0.220764 -0.634957 -0.543457 3.175679 -0.202917 -0.412381 -0.324082 1.021422 0.608739 0.315910 -0.705152 1.299618 0.552489 0.038683 -0.162591
al -0.247296 0.200109 0.733970 -0.272602 0.446032 0.208492 -0.774484 0.212268 -0.986354 0.231334 0.107792 0.879560 0.809756 0.309280 -1.250639 0.802655 0.311685 0.817026 -0.128229 -0.552093 -0.341483 -0.064813 0.358198 -0.221252 -0.582556 0.404194 0.667703 0.421329 -0.017105 0.280483 0.100739 -0.296287 -0.165746 0.814100 -0.532187 -0.353305 0.063625 0.050563 1.505348 0.858930 0.333376 -0.489168 0.647256 1.412881 -0.069334 -1.116099 0.000044 -0.359406 0.126276 -0.481580
so 0.169607 -0.512055 -0.482684 -0.585809 -0.162421 0.980658 0.815970 0.217377 0.142646 0.081081 0.222357 1.015494 0.461462 0.178168 -0.917210 0.080143 -0.193510 0.747879 1.540587 0.601042 -0.395201 -0.770864 0.145419 -0.473383 0.759038 -0.086599 0.490418 -0.519461 -0.080235 -0.831405 -0.273395 -0.944618 -0.548741 0.673244 -1.117642 -0.070877 -0.804063 0.255925 2.726183 -0.269901 0.200701 -0.101052 0.875936 0.792706 -1.493728 -1.186696 -0.341607 0.254908 -0.270243 0.240550
nat 0.061505 -0.290919 0.260093 -0.657563 0.320233 -0.152636 0.306675 -0.236129 -0.302400 1.197486 -0.865934 0.371852 0.849119 -0.693573 -1.675539 -0.390777 -0.204124 0.574163 0.466032 -0.864160 0.078528 0.548931 -0.501093 -0.286171 0.501360 -0.394710 0.866356 -0.165357 -0.660387 0.569494 0.270553 -0.826479 -0.772092 0.568827 -0.685971 -0.054429 -1.116948 -0.558106 0.929422 -0.076775 -0.117360 -0.860165 -0.360308 -0.198883 0.138199 -1.071904 0.409760 -0.141082 -0.768645 0.131888
my 0.024444 0.465265 0.208997 1.132200 0.691301 -0.719414 -0.532567 0.225277 -0.496559 0.144375 0.725052 -0.153944 0.702242 0.197345 -1.082010 0.151569 0.088275 1.261589 0.167685 -0.385048 -0.800968 0.745893 1.632744 0.041462 -0.138029 0.621945 -0.895305 -0.496217 -0.410628 -0.917762 -0.985067 -0.729945 -1.300735 0.308338 -1.103398 -0.229612 -0.150768 -0.849770 0.783375 0.459148 0.823152 -1.031939 0.226093 0.861650 -0.965602 -1.075528 0.725902 -0.572215 -0.351030 0.307202
with 0.167294 -0.209988 0.083630 0.095031 0.101379 0.081122 -0.851383 0.681737 -0.475767 -0.034312 0.160891 -0.067043 0.765119 -0.377783 -1.478638 -0.001623 0.149460 0.016647 0.503724 0.345480 -0.542849 0.835105 0.106461 -0.405314 -0.954394 -0.074710 1.206973 -0.544464 0.162970 -0.095452 -0.250625 -0.897668 -0.139890 0.343597 -0.032106 0.058699 0.158931 0.604067 1.475523 0.424372 0.116734 0.080422 0.494991 0.706451 -0.480958 -0.821039 -0.042660 -0.167488 0.200086 0.574009
hir -0.098579 0.596235 1.354568 0.298373 0.440153 -0.628975 -0.537245 0.530693 -0.654444 -0.822494 -0.583221 -0.770496 -0.039096 -0.029699 -1.590457 0.209110 0.385720 0.808680 -0.346783 0.445467 -0.333767 -0.165209 1.373375 -0.552382 -1.310643 -0.263173 0.699198 -1.004202 0.443354 -0.021094 0.004369 -0.879721 0.972769 0.166668 0.166996 0.045395 0.183046 0.601643 0.803702 1.192979 -0.751129 -0.895042 -0.273916 0.807832 -0.633678 -1.508388 0.815107 -0.298368 -0.248964 0.136095
ye -0.285509 0.587833 0.422278 -1.067291 0.539571 0.782334 -0.712580 -0.085975 -0.205768 0.657607 -0.678775 0.833262 0.657191 0.377870 -0.483904 -1.128017 0.380649 0.217008 0.517211 -1.325565 -0.061383 1.191922 0.691174 0.118940 0.861515 0.103814 0.325451 0.002284 -0.715288 -0.388803 0.313868 -0.500291 -0.070134 0.557349 0.121663 -0.571560 -1.347254 -0.404232 1.139933 -1.017078 0.217508 -0.830180 0.667886 -0.808023 -0.440058 -0.445621 0.607656 -1.265785 -0.135183 0.887873
by 0.316587 -0.585252 -0.016232 0.415832 0.831570 -0.839167 -0.774668 0.223099 -0.113109 0.074060 -0.371805 1.575514 0.022773 0.482551 -0.783589 0.065491 0.031890 0.798344 -0.299005 0.230235 -0.588012 0.255231 0.325533 -0.320436 -0.633522 0.552025 -0.550087 -0.778725 -0.280906 -0.614016 -0.421554 -1.003415 -1.238232 0.063730 0.886641 0.237260 -0.336425 0.014483 1.986028 -0.679126 0.521114 -0.549177 0.438422 0.234607 -0.666745 -0.608619 0.447390 0.462614 0.234848 0.858851
But -0.093915 1.076914 0.362128 -0.427860 -0.170261 -0.585811 -0.921637 0.350276 -0.223020 0.425038 -1.304216 0.811950 0.431719 -0.677904 -0.358469 -0.508747 0.557362 0.152986 0.590118 -0.160309 -0.954378 -0.046951 0.643152 -0.278479 -0.199636 -0.722561 0.634714 0.999023 -0.367604 -0.759872 0.358461 0.259518 0.723652 0.581284 -0.754749 0.179618 -0.604205 0.061349 1.591232 -0.608673 0.658487 -1.242324 0.620279 0.431618 -0.044670 -0.788335 0.867369 0.744831 -1.543286 -0.327765
no -0.811644 -0.137468 0.845390 -0.130956 -0.141507 0.372339 -0.101904 0.270526 -1.024279 1.222629 -0.513867 0.131379 0.647332 -0.804916 -0.178355 0.019529 0.739714 1.678302 0.414445 -0.523726 0.313430 -0.104161 -0.551529 -0.634385 0.790963 -0.420574 0.740981 -0.411281 0.023091 0.690895 -0.398185 -0.550033 -1.466096 0.223018 0.604336 0.659644 -0.097215 -0.293205 1.312912 0.411921 0.534483 0.256914 0.140156 -0.370082 0.918844 -0.929869 0.981135 0.090554 -0.295901 1.279288
be 0.255908 -0.273190 -0.113797 -0.573253 -0.098859 0.308885 -0.517534 -0.415856 -0.283710 0.483238 -0.424749 1.129795 0.632708 -0.240506 -1.163261 -0.190706 -0.482249 0.594684 0.549042 -0.105719 0.088773 0.185942 -0.045384 -0.075232 0.655947 -0.337930 0.245481 0.219653 -0.702571 0.095978 0.300942 -0.177714 -1.542762 0.499758 -0.183730 -0.176481 -1.740062 -0.551789 1.962318 0.723173 -0.220596 -0.476640 0.564675 0.617921 -0.685933 -0.512612 -0.197704 0.209118 -0.534744 -0.046164
hire 0.255340 0.137655 1.008674 0.332314 0.223289 -0.154717 -0.352460 0.124397 -0.028529 -0.700314 -0.745301 0.121746 0.698373 0.289005 -1.336468 0.395419 0.537108 1.001051 -0.207848 0.537479 -0.155208 -0.337410 0.220224 -0.472542 -0.761226 0.037487 0.778677 -0.501601 0.051975 0.101579 -0.298045 -0.750162 0.680247 0.898343 -0.056443 0.805185 -0.207570 0.697283 0.970764 0.158597 -0.291988 -0.316579 -0.025100 1.222559 -0.232337 -1.022686 -0.008625 -0.453839 -0.636852 -0.097215
she -0.475434 -0.014247 0.803093 -0.868697 -0.158333 -0.006214 -0.254190 0.671753 -0.579506 -0.110422 -1.274942 0.534596 0.230241 -0.359021 -0.988670 0.273578 0.322226 0.008775 -0.085760 0.085913 -0.387872 -0.716123 0.035606 0.092387 -0.545169 -0.818198 1.312585 0.144111 -0.487788 -0.210072 0.266073 -0.156291 1.194685 0.547612 0.136721 -0.093404 -0.710665 -0.293942 1.395640 0.238745 -0.406213 -0.282513 0.123265 1.039565 -0.291794 -1.125563 0.251053 0.408411 -0.783460 -0.508644
yow -0.129932 0.326959 0.145064 -0.868841 0.728876 0.956824 -0.528389 -0.489368 0.057135 0.766381 -0.135556 0.537045 1.718260 -0.523620 -0.961010 -0.448315 0.357552 0.531150 0.041399 -0.773491 -0.674289 1.276598 -0.104357 0.183304 0.159792 -0.035022 0.094030 0.059049 -0.680933 0.255809 -0.027951 0.226449 0.035242 1.627351 -0.751689 1.084807 -0.258587 -0.400246 0.494681 -0.120417 0.543366 -0.743341 0.601713 -0.633444 -0.658830 -0.090373 0.215244 -1.272020 -0.575857 0.020221
youre -0.165893 -0.346631 0.155427 0.309023 -0.002718 -0.404737 -0.576557 -0.291943 0.028986 0.318154 0.227571 0.312467 0.453694 0.390690 -0.926999 -0.965207 -0.182127 0.435504 -0.112935 -0.760693 -0.563860 1.663282 0.312105 -0.301799 -0.280853 0.350059 -1.072875 0.168739 0.588005 0.032348 0.098885 -0.390776 -1.525010 0.464363 0.272515 -0.039084 -1.002038 0.640595 1.133211 0.458774 0.280759 -1.173533 0.534543 0.356489 -0.345547 -0.630548 0.142992 -1.430292 0.176775 1.273463
or -0.256964 -0.101034 -0.263213 -0.333467 0.405306 -0.743231 -1.270507 0.221936 0.003330 -0.155315 -0.560121 0.609501 0.359771 -0.123625 -1.286970 -0.294423 0.083566 0.572738 -0.310990 0.784793 0.509144 1.191957 -0.426164 -0.290468 0.043714 -0.384031 0.251330 -0.817771 -1.164111 -0.360144 0.215336 -0.233994 -0.765173 0.024430 1.350809 -0.059421 -0.991664 0.088765 1.090059 0.412680 0.400342 0.503054 0.991598 -0.121172 -1.063708 1.264777 -0.210968 0.519414 0.516715 0.109801
they -0.173562 0.333097 0.692184 -0.199261 -0.462364 0.161892 0.117377 0.461256 0.053174 0.110955 -1.347778 1.002265 0.291804 0.437735 -1.472837 -0.419640 0.097582 -0.139412 -0.151732 -0.460445 0.299021 0.154102 0.344938 -0.606896 -0.347636 -0.788007 1.007369 -0.116193 -0.329825 -0.043138 1.048466 -0.607175 1.269829 0.467429 0.436587 -0.392132 -1.205886 0.170492 0.904758 -0.046982 -0.695419 -0.874934 -0.114783 0.340170 -0.241670 -0.810756 -0.045630 -0.406037 -0.421484 -0.372759
The -0.456080 -0.694776 0.519607 0.581403 -0.495043 -0.390205 -0.283282 1.377528 -0.368993 0.056590 0.073367 1.184728 0.606011 0.818779 -0.308788 0.924761 0.646142 -0.636782 0.276775 0.025880 0.456903 0.805441 0.788134 -0.673930 -1.283481 0.028299 -0.390255 -0.063396 -0.250096 0.252519 0.170605 0.059082 0.425064 0.267818 0.826376 -0.096952 0.657085 0.372367 0.667846 0.741011 0.046539 -0.140736 0.608090 1.002191 0.000817 0.147920 1.818949 0.187575 0.965875 0.357648
me 0.157789 0.837821 0.496419 -0.376558 -0.057149 0.250510 -0.874931 -0.226189 -0.113738 0.688711 0.607033 0.972187 1.168608 0.285819 -0.623462 0.375788 0.126668 0.446221 0.184136 -0.872083 -0.369959 0.590362 0.145197 -0.335776 0.628006 0.240573 -0.018051 0.293229 -0.591264 -0.436674 0.650928 -0.669556 -0.202679 1.031668 -0.738046 0.447357 -0.643828 -0.035598 0.537686 -0.527328 0.731087 -0.372084 0.305011 0.318372 -0.945142 -0.598399 0.141561 -0.549156 -1.057814 -0.354719
been -0.216130 0.009087 -0.281146 0.155042 -0.176265 0.557516 -0.102976 0.418006 0.361121 0.347803 -0.536053 0.856429 0.601619 0.548819 -1.511762 -0.811643 0.310701 -0.109699 0.145283 -1.302158 0.195328 0.263870 -0.034429 -0.391752 -0.183771 -0.281179 0.404984 -0.814025 0.651473 -0.093242 0.790948 -0.870999 0.450867 -0.110546 0.334226 -0.561279 -0.803531 0.251029 1.555371 0.066097 -0.496557 -0.641998 0.165489 -0.118552 -0.380643 -0.682219 -0.207423 -0.637173 0.520196 0.630572
wol -0.193417 0.637445 0.302743 -0.167744 0.261455 0.346675 -0.585957 0.068014 -0.538855 0.761537 -0.455195 0.296213 1.242121 -0.388026 -1.235724 -0.745018 0.493903 0.446666 0.211926 -0.985063 -0.436482 1.105483 0.213030 0.225767 0.066644 -0.592097 0.453260 0.153004 -0.523979 0.361881 -0.176881 0.094869 0.086599 1.037202 -0.880879 0.335460 -0.623639 -0.980993 0.988278 -0.119606 0.334569 -0.821299 0.506216 -0.165967 0.188855 -0.534110 0.601662 -0.612010 -0.556232 -0.159252
ful 0.184272 -0.626352 -0.089371 0.026015 -0.483935 0.261599 1.214777 1.055477 0.306592 -0.413157 0.714379 0.067289 0.200960 -0.263279 -0.900868 0.605551 -0.059694 0.207723 1.500846 -0.004458 -0.402867 0.478103 0.227820 -0.390997 -0.085784 -0.229686 1.970297 -0.620858 -0.143924 -0.435632 -0.365014 -0.276189 0.295359 0.427870 -0.352817 -0.291327 0.126041 0.602883 1.182281 -0.194291 -0.184147 0.114061 0.476681 0.305747 -0.592587 -0.511857 -0.359488 0.083992 0.322069 -0.487470
To 0.028591 0.669226 0.827954 0.308138 0.105530 0.168450 -0.172109 0.497399 -0.503760 0.265066 0.096566 0.195824 1.826521 -0.203016 -1.170697 -0.384682 0.809417 0.827165 -0.035926 -0.376582 -0.219232 1.015246 0.175040 -0.508832 0.217186 0.015123 0.914228 -0.438579 -0.055971 0.047770 0.072362 0.137188 0.314556 1.703262 0.033709 1.126622 0.074249 0.116251 0.314964 0.560089 0.583609 0.145309 0.230429 -0.294383 -0.251376 -0.111822 -0.025676 -1.476700 -0.389443 -0.719080
He 0.161433 -0.686893 0.200558 -0.256018 -0.197554 0.097776 0.144798 0.403413 -0.090414 0.532732 -1.065669 0.438641 1.326436 -0.385732 -0.569493 1.224793 0.421989 -0.139820 0.172264 -0.182571 -0.132711 -0.754711 -0.258552 0.156164 -1.016164 0.182472 1.671018 0.453923 -0.684544 0.017570 -0.432774 -0.812823 0.663761 0.178321 -0.423449 0.849917 -0.571457 -0.025619 1.116166 -0.534897 0.269956 0.645781 -0.001303 0.525555 0.300522 -1.427312 0.507981 0.552835 -0.559410 0.197561
hem -0.018278 0.480595 0.684186 0.268011 -0.155144 0.590208 -0.595025 0.429121 0.513344 -0.060429 -0.929908 0.418511 1.127932 -0.083808 -1.663261 -0.215575 0.599022 0.002207 -0.351233 -0.058320 0.111192 0.290228 -0.261617 -0.260835 -0.157378 -0.347934 0.588150 -0.517419 -0.156280 -0.021281 0.047354 -0.924553 1.220459 0.655122 0.323885 0.809239 -0.293778 0.507660 0.686165 -0.127752 -0.299033 0.132017 0.262195 0.393937 -0.451596 -0.291585 0.026791 -0.687084 -0.529502 -0.151243
Of -0.820568 -0.032830 0.584801 0.364462 0.225455 0.240408 -0.052157 0.367488 0.491724 0.743859 -0.569234 0.684135 0.520553 0.092714 -0.405693 0.462586 0.555425 0.509305 0.278070 -0.410423 0.077193 0.129257 0.508208 -0.584419 -0.581547 0.000893 -0.203677 -0.708644 0.260004 -0.247551 0.463055 0.281698 0.444491 0.306339 0.728407 -0.175628 0.191908 0.361707 1.795375 0.397036 -0.287378 -0.093327 0.704642 0.823014 -0.249395 0.603180 0.514820 -0.082365 0.869496 -0.075975
ne -1.249395 -0.512935 0.461340 0.215931 0.341603 0.265367 -0.330357 0.222679 -0.331575 1.009256 -1.117027 0.488910 0.641431 -0.431872 -0.604740 -0.108023 -0.159432 0.680550 -0.572809 -0.522839 0.071847 -0.452212 -0.818005 -0.583859 0.890551 -0.370728 -0.151191 -0.521407 -0.124524 0.350889 -0.420601 -1.112014 -0.611067 0.157681 0.299203 -0.145418 -0.516060 0.147972 1.401766 -0.418018 -0.097113 -0.852852 -0.229552 0.575050 0.461770 -1.291424 -0.111280 0.208473 -0.140434 0.672185
may -0.185682 0.107699 0.714406 -0.957206 -0.134610 0.325653 0.209325 0.148672 -0.536768 0.702002 -0.541732 0.429542 0.360052 0.008922 -0.716218 -0.181894 0.308612 0.673583 0.292395 -0.686843 0.264197 0.378660 0.147518 -0.123791 0.739746 -0.500606 1.070213 -0.747236 -0.534743 0.413541 0.458248 -0.508020 -0.843598 0.194405 0.698446 -0.350580 -0.987495 -1.254703 0.904251 0.210435 -0.113285 -0.557661 0.172586 -0.254478 -0.014539 -0.675865 0.570709 -0.196108 -0.021774 0.581189
thy -0.064261 -0.748117 0.016420 1.220157 0.030902 -0.952496 -0.771480 0.079113 -0.532430 0.662876 0.268759 0.324995 0.944385 -0.062180 -0.716319 -0.505015 -0.920466 -0.347709 -0.022684 -0.763811 -0.343651 0.713985 0.026430 -0.459885 0.146893 0.747830 -0.833709 0.268778 0.163268 -0.275287 0.052394 -0.536763 -1.423268 0.168763 0.105347 -0.401505 -0.434218 0.578838 0.893333 0.513773 -0.077887 -0.603637 0.174015 0.996300 -0.398313 -1.092718 0.295109 -1.061548 -0.171015 0.826596
wel -0.089071 -0.134120 0.025409 -0.714536 0.341789 0.167767 0.250014 0.596062 -0.266097 0.851500 -0.601044 0.785489 0.367296 0.042002 -0.181301 -0.247290 -0.220123 -0.184317 0.602859 -0.778086 -0.391041 0.164912 0.425666 0.119365 0.420119 -0.083646 0.976973 -0.636164 -0.710396 -0.566394 0.326602 -0.779386 0.281969 0.385448 -0.035889 -0.540845 -0.747485 -0.769296 1.411989 -1.238314 -0.016265 -0.689983 0.151242 -0.068822 -0.411897 -0.765367 1.319687 -0.387652 0.365739 0.095140
on -0.057010 0.474737 0.211752 0.322478 -0.040147 -0.322733 -0.842019 0.602596 -0.709449 -0.180856 -0.032381 0.214098 0.936335 -0.162924 -0.811827 0.502338 0.341705 0.142713 0.414515 0.058593 -0.123897 0.260267 0.016599 -0.491791 -0.288877 -0.164110 0.507784 -0.073381 -0.558344 0.041755 -0.030778 -0.137381 0.419347 0.383031 -0.019790 0.602162 0.447312 0.480121 0.919171 0.613004 0.544638 0.176124 0.462980 0.505314 -0.353082 -0.342308 0.669751 -0.224383 -0.466080 -0.051976
quod 0.478997 0.396529 -0.599434 -2.011877 0.276946 -0.952290 0.626215 -0.835970 -0.866076 1.932714 1.637160 1.047213 -0.626694 -0.573081 0.679764 0.255799 -0.313339 0.697214 0.846636 -0.834648 -0.623908 0.571370 -0.199611 0.674717 -1.339398 0.601156 -1.473140 -0.342683 -0.241806 0.279661 0.497783 0.199581 -1.419902 0.602002 -1.103164 -1.069162 0.606145 -0.841086 0.805840 -0.997505 0.377715 -0.727040 0.300574 0.485676 0.364858 0.433659 -0.120231 0.084609 -0.395881 -0.137008
have -0.516726 0.209590 -0.179473 -0.392097 0.614772 0.737029 -0.540560 -0.109416 -0.161868 0.825328 -0.092779 0.233285 0.885118 -0.414814 -0.788544 -0.153728 0.241741 0.668941 0.343378 -0.779086 -0.231755 0.983736 -0.151827 0.095716 -0.157958 0.003726 0.205547 -0.474510 -0.221556 -0.021545 -0.183517 -0.504054 -0.272215 0.323089 -0.164380 0.125601 -0.087525 -0.233595 1.242454 -0.428680 0.160502 -0.537362 0.872670 -0.239091 -0.228901 -0.159755 0.146084 -0.758709 0.090139 0.675769
This -0.393822 -0.435284 0.490171 -0.198226 -0.505255 0.201962 0.563688 1.904989 -1.958147 0.293498 0.957908 0.984473 0.410900 -0.209583 0.097367 0.711035 1.110136 -0.096202 0.278012 -0.713935 -0.505858 -0.224692 0.421536 -0.102871 -0.632548 0.362934 0.396592 0.008611 -0.251939 -0.036699 -0.844707 0.737938 -0.355060 -0.108395 -0.407115 -0.879744 0.932159 -0.483257 0.173881 1.312187 0.242690 0.708264 0.333530 0.268389 0.632098 -0.296102 0.135559 0.186741 0.248170 -0.257019
shal -0.417981 0.062535 0.307026 -0.500088 0.273542 0.646587 0.036250 -0.007681 -0.454951 0.766322 -0.453816 0.258772 1.014968 -0.288936 -0.802391 -0.247134 0.332183 0.356135 0.130366 -0.812208 -0.296081 0.532133 -0.319431 0.216889 0.270355 -0.256663 0.386796 -0.172461 -0.816268 0.368446 -0.288280 -0.381869 -0.379139 0.709658 -0.383555 -0.075424 -0.562638 -0.740778 0.957887 0.014108 0.337149 -0.824795 0.155409 0.177850 0.071198 -0.665148 0.048695 -0.650666 -0.392986 0.179158
man -0.279705 -0.354658 0.101591 -0.394604 -0.434927 0.721129 0.109983 1.112988 -0.802482 0.671156 -0.421380 0.721894 0.825080 -0.482325 -0.308308 -0.057908 0.578434 0.450018 0.617374 -0.273411 0.415028 -0.378148 -0.298942 -0.473347 0.561251 -0.183839 1.187027 -0.680980 -0.407853 -0.085517 -0.168897 -0.245295 -0.564253 -0.235117 0.312045 0.196111 -0.475993 -0.244059 1.596120 0.492439 0.370308 0.811943 0.500553 -0.291608 0.099722 -0.445741 0.529818 0.387255 0.295057 0.726393
-- -0.028963 0.296990 0.599854 -0.056305 -0.084504 -0.092888 -0.761788 0.040729 -0.172872 0.476367 0.236970 0.660022 0.210486 0.163038 -0.603046 0.257021 0.664643 0.937575 0.310230 0.127971 0.309983 0.472267 0.395067 -0.068638 -0.264289 -0.374163 0.507792 -0.046935 -0.390022 0.120370 -0.061938 0.005105 -0.536754 0.653310 0.113999 0.021578 -0.686480 -0.436178 0.965559 0.480501 0.462186 -0.280701 0.433485 0.305288 0.121900 0.148045 0.577848 -0.051857 0.380073 -0.172902
hadde -0.700810 0.141420 -0.375791 -0.586112 0.166566 0.515986 -0.424483 0.544921 -0.346094 0.519986 -0.336505 0.326582 0.416807 -0.554692 -1.043891 0.555597 0.026732 -0.071032 -0.164124 -0.987265 -0.096371 -0.214167 -0.132997 -0.113532 -0.839538 -0.119461 0.460416 -0.257612 -0.301986 0.106237 0.153817 -0.547352 1.118021 -0.217369 -0.173193 -0.688421 0.223464 -0.072245 1.439876 -0.096929 -0.160217 -0.146450 0.627995 0.575719 -0.066925 -0.333576 -0.310395 0.240579 0.380231 -0.285116
were 0.047540 0.386743 0.194054 -0.427686 -0.554065 -0.000817 -0.388116 0.306382 0.239720 0.222819 -0.123827 0.448235 0.311409 -0.433015 -0.791849 0.596431 -0.493439 -0.475927 0.542145 -0.393368 -0.177249 0.470927 0.509021 -0.568024 0.267609 -0.519798 0.507614 0.543780 -0.881175 -0.433546 0.977928 0.029158 0.624624 0.186914 0.043322 -0.409189 -1.048343 0.369886 1.121192 0.008742 0.173809 -0.872961 0.538320 0.280741 -0.953488 -0.137008 -0.116227 0.915657 -0.675087 -0.947831
hath -0.137550 0.592741 -0.004096 -0.331272 -0.325845 1.143532 -0.202498 0.832405 -0.326727 -0.028107 0.220485 0.677767 0.915878 -0.476430 -0.748773 0.282039 0.825733 0.578541 0.300407 -0.079782 0.238603 -0.355695 0.265855 -0.080446 0.126720 -0.062668 0.960619 0.051318 0.514544 -0.013297 -0.272726 -0.080791 0.079724 0.281596 -0.391604 0.169596 0.019178 0.121816 0.935617 0.897663 0.510602 0.199521 0.172881 0.377954 -0.148894 -0.399898 -0.415252 0.297106 -0.088646 -0.102772
ther -0.677416 -0.016610 0.908604 -0.401246 -0.335194 0.571622 0.133768 0.807150 -0.246509 0.595656 -0.520055 0.202180 0.248527 -0.401355 -0.080360 0.102716 0.441500 0.352575 0.667934 -0.626025 -0.045894 -0.640524 0.045799 -0.532211 1.030025 -0.514608 0.552601 0.117107 -0.106118 0.086136 -0.243840 -0.076209 -0.044713 -0.148748 0.279405 -0.298698 0.000883 -0.059355 1.709833 0.040932 0.340327 -0.305865 0.535838 0.330136 0.352673 -0.558962 0.098681 0.480303 0.152710 0.445859
han -0.207575 0.971210 0.621709 -0.622283 0.074420 1.116980 -0.154773 0.063933 -0.360739 -0.050315 -0.700811 0.621074 0.687373 0.600572 -1.154355 -0.255493 0.302628 0.411525 -0.249174 -1.145399 0.137197 0.439207 0.674623 -0.182456 0.205904 0.147302 0.737696 -0.593892 0.297569 -0.154105 0.766537 -0.977960 0.567009 0.289867 0.583579 -0.272161 -0.981253 0.196902 0.877829 -0.414780 -0.449116 -0.363524 0.261549 -0.359071 -0.310046 -0.817259 -0.535903 -0.900486 -0.116595 0.364112
which -0.768061 -0.117073 0.509100 -0.094864 -0.047376 0.666012 0.484575 0.583345 -0.190224 0.755618 -0.521564 0.403828 0.735451 -0.179405 -0.278915 0.752704 0.322077 -0.146426 0.586089 -0.995184 -0.372432 0.139169 0.809747 -0.493731 -0.236238 0.363215 0.033122 -0.280867 0.107231 0.072852 0.564291 0.753414 0.339358 0.324094 0.358977 -0.333152 0.267805 0.385490 1.795123 0.485438 -0.565678 0.204005 0.866592 0.291835 -0.398831 0.184531 0.772489 -0.377760 0.711305 0.047083
As -0.033916 0.841024 0.655899 -0.650577 -0.234168 0.252444 0.168678 0.965338 0.051560 -0.170871 -0.237533 0.230793 0.293409 0.073444 -0.481692 0.564654 -0.434619 0.112223 0.324527 -0.511795 -0.720913 0.447948 0.938103 -0.417007 0.402163 -0.083395 0.420969 -0.230789 -0.742614 -1.093242 0.825328 -0.082164 0.656226 -0.203230 1.074382 -0.193689 -0.757240 0.105106 1.577284 -0.444611 1.163690 -0.658216 0.767290 0.000848 -0.915579 -0.354417 0.100437 0.451419 -0.180591 -0.086338
thou -0.069048 -0.635428 0.205978 -0.055854 0.397776 -0.279082 -1.060897 -0.378565 -0.380810 1.243761 -0.638229 0.530785 0.867986 -1.108339 -0.168245 -0.511272 -1.087650 -1.052998 0.328426 -0.712681 -0.213885 0.434978 -0.282408 -0.059328 0.734091 0.028521 -0.674312 1.018897 -0.443007 -0.459542 0.773443 -0.457318 -0.708625 0.284004 -0.012502 -0.427172 -1.235660 0.405925 0.952517 0.075481 -0.566619 -0.445951 0.635924 0.233301 -0.911431 -0.575482 0.359973 -0.188730 -1.197350 0.602209
whan -0.156636 0.100428 0.563336 -0.497856 -0.042806 0.153924 -0.482780 0.940147 -1.026724 0.289918 -0.340293 0.714648 0.382700 -0.414268 -0.699516 0.140128 0.247915 -0.363047 -0.161052 -0.528815 -0.412764 0.037617 0.692628 -0.111088 -0.785516 -0.179576 0.572738 0.296889 -0.097500 -0.464732 0.675584 0.141197 0.802656 0.072625 0.183278 -0.554708 -0.416484 0.001224 1.021819 0.481385 -0.142943 -0.287805 0.526223 0.250594 -0.361579 -0.630236 0.183741 0.000206 -0.310510 -0.337672
if -0.243452 -0.220423 -0.148644 -0.452645 0.166682 -0.390839 -0.769405 -0.365717 0.161358 0.785792 -0.747238 0.579163 0.873860 -0.443537 -0.290704 -0.326034 -0.258362 0.111106 0.570768 -0.366800 -0.028199 0.691767 0.159483 -0.424562 0.033639 -0.036434 -0.034234 0.687803 -0.732835 -0.602883 0.377998 -0.146831 -0.211062 0.520396 -0.315444 0.010484 -1.477817 0.161141 1.463813 -0.491526 0.097737 -0.401453 0.556304 0.178944 -0.693148 -0.332334 0.246139 -0.048217 -1.217424 0.287255
God 0.310510 0.520463 0.162947 -0.473812 0.203258 0.743501 -0.954277 -0.414528 0.417108 0.506963 0.627192 1.036592 1.295871 0.270529 0.112167 1.107910 0.434485 0.710023 0.229842 0.148231 0.068088 0.049391 0.834957 -0.196374 -0.206380 0.656389 0.137316 0.903658 -0.020217 -0.253897 -0.133131 -0.121271 -0.479882 1.593949 -0.620758 1.312533 -0.576851 -0.337496 0.912133 -0.490859 1.373460 -0.507334 -0.263205 0.238598 -0.233383 -0.054168 0.290216 0.271963 -0.180569 -0.422431
at -0.080188 0.109307 -0.036444 0.294953 -0.259585 -0.605795 -0.456841 0.357322 -0.302340 -0.218181 -0.006853 0.246727 0.224347 0.195611 -1.250782 -0.019966 0.181341 -0.356653 -0.164545 -0.683124 -0.586626 0.159819 -0.152834 -0.154760 -0.225579 -0.078416 0.075275 0.186908 0.070717 -0.049266 -0.110002 -0.319195 0.051721 -0.084467 0.050580 -0.241343 0.239108 -0.015516 1.012376 0.318854 0.474793 -0.281260 0.408135 0.820830 -0.080993 -0.643167 0.114787 -0.255254 0.345033 0.259730
but -0.621869 -0.013405 0.328755 -0.007723 -0.114446 -0.678587 -0.294085 -0.071027 -0.460612 1.068158 -0.464350 0.058792 0.646983 -0.334152 -0.120655 -0.060837 0.280134 1.140945 0.354930 -0.418667 0.447925 0.419681 -0.321332 -0.648152 0.385416 -0.524297 0.409155 0.234539 -0.077898 0.152101 -0.070965 0.029684 -0.320471 0.223369 -0.216867 0.054716 -0.940630 0.165051 1.063525 -0.244449 0.046934 -0.464176 0.233029 -0.493422 0.478696 -0.614316 0.233165 0.048561 -0.858409 0.216652
wolde -0.527512 0.559739 0.478440 -0.410330 0.243930 0.814365 -0.292448 -0.268044 -0.013528 0.500032 -0.998022 -0.124406 0.917882 -0.142315 -0.763904 0.610041 0.139521 0.557499 -0.262830 -0.694115 0.018371 0.303023 0.186245 -0.161570 0.046338 -0.103091 0.987307 0.034389 -0.477723 0.191792 0.314462 -0.700904 0.618924 0.781244 -0.044246 0.645552 -0.673847 -0.517780 0.575004 -0.441577 -0.059545 -0.502834 -0.000074 0.040882 0.032322 -0.688449 0.346263 -0.290191 -0.400194 -0.185911
oure 0.386282 0.638375 0.411301 -0.696338 -0.470687 -0.339806 -0.303850 -0.102828 -0.395040 0.962175 0.126779 0.704994 0.353681 0.189947 -0.302762 -0.429821 0.234404 -0.145914 0.046810 -1.019928 -0.193857 -0.319576 0.434133 -0.225297 -1.354352 0.014321 -0.187180 0.237998 1.671648 0.052405 0.932816 0.012116 -0.421695 0.306753 -0.516627 -0.246791 -0.216581 -0.199714 1.166308 0.795501 0.069495 -0.727690 -0.848130 0.451645 0.638369 -0.509578 -0.063057 -0.322229 0.277310 -0.180842
In -0.655534 -0.158574 0.582610 0.140919 0.135425 0.338873 0.008920 0.520164 -0.027411 0.338174 -0.287366 0.190461 0.107950 0.123780 -0.425739 0.426793 0.352714 0.280162 0.381124 -0.612629 -0.183916 -0.135127 0.405173 -0.319366 -0.207520 0.113916 0.051090 -0.321370 0.160645 -0.033205 0.186443 0.180090 0.303014 -0.015295 0.566662 -0.546934 0.481957 0.340763 1.507911 0.423669 -0.011149 -0.029457 0.809168 0.804433 -0.207195 0.019075 0.414771 -0.066198 0.991215 0.302751
eek 0.347998 -0.421378 0.227602 0.109611 -0.069559 -0.656081 -0.372231 0.277850 0.013859 0.243098 -0.096402 0.261302 0.558607 -0.113013 -0.672874 -0.213343 0.232730 -0.272143 0.725647 -0.006412 -0.357581 -0.181236 0.222040 -0.352894 -0.437695 -0.135933 0.320212 0.022950 0.009212 -0.523104 -0.212206 -0.683654 0.445176 0.450222 -0.624908 -0.034912 -0.150435 0.382357 1.109882 -0.421877 0.096772 -0.140424 0.239699 0.653092 -0.535424 -0.836325 0.500889 -0.024661 -0.444744 0.344457
we 0.089086 0.889546 0.050875 -1.083393 -0.102605 0.439736 -0.266128 -0.242619 -0.333839 0.687199 -0.666009 0.497423 0.594771 -0.011587 -0.888334 -0.637816 0.086833 -0.262618 -0.022439 -1.239635 0.091003 0.058506 0.328310 -0.136150 -0.188817 -0.296379 0.715471 0.004902 0.480333 0.274691 1.239714 0.164606 0.294804 0.452738 -0.207637 0.202856 -0.862606 -0.763035 1.188619 0.397897 -0.457657 -0.514021 -0.213512 -0.470467 -0.083872 -0.263612 0.221325 -0.493477 0.008167 -0.417702
sholde -0.290114 0.144746 0.333925 -0.344329 0.168263 0.780327 -0.011142 0.142906 -0.431668 0.356369 -0.792829 0.365959 1.156449 -0.351463 -1.154344 -0.006928 0.352414 0.411475 -0.206598 -0.563742 0.325590 0.387207 -0.296692 -0.031880 0.634444 0.055676 0.714564 -0.196036 -0.766991 0.474060 -0.078404 -0.567297 -0.066006 0.624502 0.011404 0.152576 -0.627155 -0.271254 0.301446 0.309121 -0.190340 0.014564 0.245225 -0.144083 0.006651 -0.527548 0.001844 -0.527847 -0.422416 0.207625
swich -0.447900 0.379642 0.679545 -0.380595 0.072953 0.424579 0.016938 0.702957 -0.097088 0.179540 0.329036 0.253160 0.099031 -0.110782 -0.731727 -0.113463 0.538086 0.864854 0.515669 -0.007850 -0.357943 0.198738 -0.319263 -0.326223 0.195878 -0.508648 0.426502 -0.648338 0.320007 0.017070 -0.102036 0.153447 0.104593 -0.208838 0.619505 -0.074556 0.794692 0.800485 1.508633 0.310194 0.931364 -0.025076 0.917304 -0.057441 -0.176242 0.133300 0.220168 0.195976 0.849434 0.614624
men -0.021480 0.198980 0.263670 -0.817973 0.182217 0.423164 -0.042890 0.255355 -0.175373 0.437088 -1.024255 0.457391 0.584747 -0.108962 -1.019467 -0.266960 0.238379 0.035466 0.063951 -0.502336 0.139642 0.456768 0.098348 0.145732 -0.070046 -0.007417 0.990727 -0.377173 -0.684924 -0.241137 0.602713 -0.405554 0.428560 0.087849 0.554274 -0.047925 -0.747840 -0.339232 0.684395 0.046305 -0.171893 0.075931 0.451020 -0.564835 -0.512933 -0.053804 0.449380 -0.266562 0.081096 0.394398
right 0.684606 0.303241 0.134157 -0.508144 -0.239936 0.257435 0.288208 0.354899 -0.251827 -0.316581 -0.211402 0.698425 -0.390704 0.306410 -1.105502 -0.602293 0.165590 -0.018379 0.440566 0.024109 -0.867290 -0.126891 0.254292 0.264424 0.232461 -0.176283 0.496821 0.214123 -0.539419 -0.627784 -0.082940 -0.351232 0.546968 0.341520 -0.547108 0.060467 -0.455353 -0.209588 1.235998 -0.727480 0.600886 -0.339198 0.479469 0.078465 -0.578466 -1.031880 0.290254 0.042077 -0.478848 0.228918
us 0.488465 0.637873 0.038324 -0.516976 -0.445267 -0.270595 -0.648505 -0.076260 0.236247 0.750917 0.021520 0.397158 1.078373 -0.252657 -0.528642 -0.556526 0.662665 -0.058847 -0.063285 -0.718969 -0.020032 -0.065540 -0.167209 -0.199963 -0.462238 -0.295144 0.285526 -0.048839 1.010733 0.177706 0.512373 -0.275983 0.065087 0.451060 -0.680772 1.272587 -0.102258 -0.341310 0.281033 -0.011335 0.492240 0.021535 -0.347883 -0.512933 0.113094 -0.068850 0.522582 0.002281 -0.336813 0.055480
an -0.018131 -0.017606 -0.344058 0.055121 -0.261794 -0.587782 -0.000089 0.875858 -0.222342 -0.328960 0.441848 -0.218935 0.403829 -0.421252 -1.196217 0.444149 0.388614 0.520719 0.515378 0.166170 -0.100512 0.707809 -0.324406 -0.275344 0.067839 -0.475939 0.508879 -0.593169 -0.108348 0.008668 -0.433814 -0.074609 0.012391 -0.072816 0.108425 0.046674 0.573772 0.146179 0.570206 0.409038 0.744220 0.352562 0.916458 -0.193461 -0.367310 0.041440 0.038973 0.396308 0.286665 0.013909
alle 0.036396 0.293337 0.616031 0.321010 -0.113360 -0.035131 -0.619036 0.244646 0.346073 0.365296 -0.382348 0.352308 0.581481 -0.171657 -0.809767 -0.801181 0.410523 -0.055324 0.266103 -0.309394 -0.015871 0.247248 0.341642 -0.272265 -0.785364 -0.083552 0.012525 -0.458457 0.854340 -0.202139 0.719703 -0.170052 0.283567 -0.032490 0.739811 0.414374 -0.022336 0.778104 1.063481 0.674843 0.248422 0.015504 0.391811 -0.077052 -0.457304 0.239888 0.505607 -0.613105 0.389546 0.718400
every -0.302451 0.078238 0.318015 0.734645 -0.368168 -0.148397 -0.288383 0.781196 -1.154245 0.320949 -0.416103 -0.076752 0.603649 -0.430380 -0.169991 -0.145544 0.872873 0.682246 0.709988 0.360481 0.541842 -0.499032 -0.272553 -0.490625 0.198921 -0.256695 0.682040 -0.286624 0.283460 0.280586 -0.227990 0.073697 -0.554598 -0.223809 0.475983 0.323810 0.253973 0.261516 0.626391 1.379113 0.497453 1.098602 0.141106 0.079184 0.405200 -0.413023 0.412149 -0.420116 0.042893 1.047615
greet -0.021703 -0.306364 -0.298548 0.170942 -0.096857 0.366009 0.482773 0.524634 0.234555 -0.169353 0.949854 0.044451 0.458670 -0.134740 -0.724123 0.499130 -0.119243 0.835727 0.716894 0.370356 -0.130446 0.566761 0.276257 -0.535253 0.067288 0.240933 0.651056 -0.779064 0.214169 -0.525496 -0.281861 -0.488264 -0.695124 0.125795 0.013517 -0.114705 0.097007 0.655537 1.291722 -0.157066 0.192440 0.107895 0.472733 0.167379 -0.701633 -0.185468 -0.609572 -0.084072 0.259041 0.129337
A -0.423540 -0.582114 -0.542519 -0.198114 -0.059040 -0.089246 0.233859 0.669459 -0.399765 0.359604 0.358585 -0.473149 0.317577 -0.764275 -0.473175 0.894784 0.084869 0.636789 0.374324 0.093041 0.174819 -0.231103 -0.324386 -0.614874 -0.209224 -0.313032 0.989339 -0.976494 -0.456526 0.101626 -0.299186 -0.120877 -0.189921 -0.494855 -0.080077 -0.247513 0.379296 0.111075 1.316406 0.485407 0.077304 0.751720 0.494755 0.110820 -0.179257 -0.206882 -0.109649 0.839279 0.594034 0.173543
unto 0.046135 -0.000484 0.290992 -0.271754 -0.498720 -0.395574 -0.073334 0.373860 -0.175249 0.100779 -0.043352 0.111220 0.381987 0.031183 -0.526399 -0.018687 0.299977 -0.017786 0.071743 -0.371538 -0.316824 0.641684 0.012399 -0.209926 -0.363120 -0.063415 0.485361 0.478222 -0.046016 0.186164 -0.010781 0.168558 -0.294420 0.346556 0.018701 0.169991 -0.431227 -0.019184 0.637721 0.228553 0.532412 -0.246101 0.112947 0.067087 0.345759 -0.506671 0.096575 -0.406152 -0.138780 0.363966
he, 0.086891 0.082371 -0.477387 -1.173064 0.407603 -0.542995 0.245785 -0.321577 -0.688905 1.469475 0.894236 0.391497 -0.152944 -0.677854 0.454005 0.238697 -0.148297 0.225510 0.554326 -0.483409 -0.570233 0.572188 -0.562462 0.397101 -1.100421 0.244277 -0.465268 0.075734 -0.659623 0.090271 -0.077114 0.131170 -0.478137 0.254635 -0.658754 -0.697333 0.654905 -0.592278 0.458997 -0.830448 0.526414 -0.210833 0.433234 0.188202 0.366227 0.225080 0.031284 0.194166 -0.226723 0.007185
thyng -0.595231 0.466354 0.714938 -0.633758 0.134442 0.353673 0.012573 0.183511 -0.321894 1.092893 -0.589544 0.573914 0.525656 -0.818302 -0.121816 -0.530093 0.496680 0.997190 0.692132 -0.079471 -0.229915 0.386835 0.136559 -0.289323 0.396345 -0.562606 0.288795 -0.128029 0.026236 -0.036792 0.306357 0.569128 -0.280286 0.236177 0.316485 0.142980 -0.106521 0.082504 1.447776 0.263020 0.375262 -0.113073 0.786327 -0.325539 -0.009862 0.231744 0.512524 0.295099 -0.144945 0.082167
doon -0.041723 0.684132 0.667853 -0.397086 0.046823 0.655126 -0.206839 0.197713 -0.264619 -0.190405 -0.179132 0.409096 0.736596 0.135692 -1.554114 -0.338420 0.441306 0.589775 -0.223309 -0.197974 -0.168601 0.383009 0.050783 0.020375 0.180655 0.046836 0.542041 -0.614874 -0.088481 -0.088077 0.233064 -0.466731 0.281444 0.393684 0.264997 0.148476 -0.447309 0.258406 0.746630 0.584025 0.349917 -0.003141 0.502587 0.157983 -0.693098 -0.318534 -0.563549 -0.879835 -0.066450 0.272129
With 0.084907 -0.395050 0.145859 0.520607 -0.153184 0.184855 0.128713 0.698548 0.036015 -0.203715 -0.072579 -0.307196 0.388878 0.184168 -0.575981 0.423666 0.267613 -0.262248 0.437590 0.327530 -0.090388 -0.301138 0.354248 -0.385712 -0.682744 0.091954 0.760417 -0.321016 0.307599 -0.334080 0.030909 -0.261957 0.452156 -0.188671 0.361557 0.225083 0.444137 0.497395 0.916555 0.578905 0.007089 0.498433 0.276137 0.719159 -0.365526 -0.196079 0.067690 -0.144166 0.569404 0.110391
than -0.599304 -0.237581 -0.384218 -0.204122 -0.728903 -0.359315 0.028043 0.843470 -0.295156 0.278782 -0.007990 0.425749 0.342135 -0.030134 -0.048080 0.145972 -0.382592 0.012215 -0.190519 -0.362679 0.442420 1.313304 -0.243434 -0.398036 -0.079590 -0.681190 0.545643 0.014142 -0.531272 0.504981 -0.037740 -0.339676 -0.125317 0.253842 0.964663 -0.157784 -0.159350 -0.244606 -0.092622 -0.546195 0.343801 -0.895488 -0.066176 -0.294611 0.707003 -0.112382 -0.048584 0.219972 0.006285 0.121355
upon -0.135703 -0.183918 0.044471 -0.132888 0.048352 -0.128943 -0.159804 0.384998 -0.374295 -0.229864 -0.079064 -0.011251 0.480644 -0.165832 -0.681727 0.492042 0.183278 0.128362 -0.066966 -0.031474 -0.258193 0.156831 -0.133785 -0.022111 -0.426939 0.106101 0.475367 -0.080045 -0.357927 0.063434 -0.278084 -0.245979 0.377397 0.144174 -0.138937 0.202226 0.203738 0.158604 0.212922 0.301204 0.181687 0.267645 0.210490 0.034278 -0.171802 -0.532570 0.066767 -0.008203 -0.227492 0.059857
Ne -0.705714 -0.113666 0.343242 0.112705 0.441458 0.736453 -0.240982 0.221878 -0.041424 1.005700 -1.227075 0.154352 0.798979 -0.551769 -0.410607 0.199444 0.296854 0.069557 0.322488 -0.312230 0.137816 -0.906769 -0.660984 -0.147442 0.695919 -0.814072 0.289219 -0.331154 -0.378788 0.480487 -0.221926 -0.920512 0.633236 0.222843 -0.417082 -0.007800 0.084392 -0.199248 0.885338 -0.387479 -0.086384 -0.642929 -0.238751 0.806457 0.336050 -0.714488 0.760801 0.220769 -0.193542 0.068970
thee -0.096179 -0.364324 -0.065679 0.002521 0.209100 0.098449 -0.273997 -0.292186 0.082128 0.596145 0.241633 0.176378 0.958411 -0.124481 -0.415879 -0.048261 -0.195241 0.161742 0.209925 -0.411466 -0.322371 0.812016 -0.298778 0.028492 0.278539 -0.014796 0.196018 0.087793 -0.453070 0.039137 -0.204091 -0.496609 -0.532958 0.843076 -0.440733 0.455103 -0.391441 -0.110373 0.461618 -0.426776 0.311338 -0.512311 0.083256 0.190956 -0.284374 -0.436912 0.221275 -0.830557 -0.391304 0.150538
many -0.012006 -0.521077 -0.480741 0.470842 -0.376694 0.227014 0.024513 1.092459 0.248247 -0.249926 0.441449 -0.495472 0.247493 -0.636497 -0.417750 -0.133377 0.137236 0.193959 1.054315 0.372769 -0.007269 -0.320636 -0.269803 -0.504851 0.072688 -0.777397 1.326039 -0.766751 0.358920 -0.279072 -0.438490 -0.015771 0.540990 -0.668464 0.248184 -0.222493 0.487428 0.512614 1.398971 -0.069828 0.113332 0.711686 0.800179 -0.087772 -0.240666 0.009720 -0.229781 0.581739 0.699371 0.184384
what -0.483894 -0.187044 0.116624 -0.526886 0.178068 0.299982 0.139936 0.212624 0.016346 0.538673 -0.873573 0.700554 0.379718 -0.203844 -0.126550 -0.180888 0.328821 0.530389 0.286009 0.010029 0.086024 0.273407 -0.268579 0.412613 0.680276 -0.378555 0.272696 -0.106016 -0.726523 -0.176756 -0.202735 -0.103088 -0.132573 0.469414 0.255509 -0.419444 -0.587325 -0.190325 0.476072 -0.343016 0.109004 -0.247140 0.482979 0.233226 -0.240686 -0.024234 0.123317 0.095880 -0.214281 -0.003615
out -0.291774 -0.061063 0.375167 0.343316 -0.215245 -0.220329 -0.650424 0.289015 0.258728 0.158538 -0.061987 0.071357 0.746804 -0.278020 -0.848240 0.608907 0.491645 -0.024926 -0.209585 -0.201510 -0.167699 0.150654 0.113561 -0.437052 0.031142 -0.079584 -0.065736 -0.039410 -0.015034 0.025812 -0.474568 -0.228520 -0.069878 0.155809 -0.278754 0.405698 0.069629 -0.120127 0.653313 0.116031 0.384194 0.030027 0.120981 0.428631 -0.001484 -0.344088 0.403004 0.470265 -0.056828 0.167362
day -0.222358 -0.128261 -0.201719 0.357510 0.027992 -0.476827 -1.026975 1.051789 -1.136856 -0.194290 0.060196 1.340233 0.517909 0.068397 -0.576835 0.378488 0.104169 -0.138425 -0.308643 0.373374 0.132719 0.475583 0.082653 -0.588071 -1.064700 0.038585 0.168743 -0.173688 -0.777078 0.121614 0.378675 0.242131 0.216558 0.255593 0.572527 -0.086665 0.391607 0.315337 0.611873 0.869382 0.325370 -0.123764 0.804904 0.392563 -0.400887 0.144427 0.209882 -0.086078 -0.009924 -0.687236
His -0.103491 -0.016643 0.167158 0.441299 -0.054545 -0.306435 0.270995 0.422508 -0.063566 -0.120616 0.258305 -0.912196 0.181132 -0.189873 -0.414111 1.236497 0.263376 0.061980 0.154221 0.255188 -0.536514 -0.146276 0.415471 -0.412265 -0.697928 0.285285 0.468013 -0.199283 -0.086649 -0.147260 0.034564 -0.216572 0.176252 -0.396645 0.094557 -0.093903 0.422233 0.701348 0.654620 0.684690 0.446435 0.064403 -0.320666 1.065858 -0.131314 -0.382640 -0.161179 0.215219 0.411789 -0.054502
herte -0.120697 -0.417966 0.177575 0.578860 -0.015182 -0.087925 -0.145701 0.534220 -0.304782 -0.473737 -0.090330 -0.656096 0.035719 0.199140 -0.450920 0.418377 -0.239517 0.299261 0.213210 0.232598 -0.355375 0.553770 0.546420 0.028876 -0.904474 -0.051829 0.503323 0.401680 0.247253 -0.214980 -0.078024 -0.386419 -0.238235 -0.102206 0.300652 -0.021930 -0.201461 0.038360 0.790023 0.583916 0.174119 -0.629062 0.283141 0.956906 0.224895 -0.810838 0.081583 -0.644481 0.211424 0.351797
any -0.664791 0.292530 0.574467 -0.063592 -0.094811 0.282408 -0.277116 0.486843 0.232691 0.081163 -0.623143 0.001508 0.399821 -0.696755 -0.214760 0.129711 -0.052529 0.557391 0.133455 0.518371 0.231197 0.232995 0.166010 -0.368245 0.876713 -0.520510 0.088140 -0.526727 -0.374546 -0.391816 0.330386 0.371232 -0.070887 -0.406102 1.367231 0.023941 -0.553127 0.222276 0.939525 0.498845 0.546627 0.119320 0.647286 -0.088085 -0.320884 0.729602 -0.212942 0.653987 0.160147 0.120026
myn -0.076045 0.179594 0.443582 1.016235 0.259316 -0.444690 -0.217585 0.138609 -0.300342 -0.256147 0.212298 -0.784676 0.131219 0.396622 -0.259252 0.094130 -0.205079 0.814310 0.277241 -0.007343 -0.664967 0.659420 0.805659 0.154734 -0.646793 -0.022059 -0.347976 0.172554 0.472019 -0.316759 -0.445456 -0.085073 -0.514551 -0.002015 -0.000464 -0.214380 0.079630 0.015695 0.692464 0.558915 0.381751 -1.341245 0.177941 1.110767 0.281196 -0.816247 0.056873 -0.874302 -0.165901 0.116711
myghte -0.413951 -0.055184 0.482591 -0.530992 0.276163 0.214150 -0.136246 -0.236517 0.003136 0.367477 -1.282140 0.219151 0.533255 -0.330120 -0.908850 0.238242 0.111168 0.335159 -0.190187 -0.032954 0.367128 0.200831 -0.279059 -0.198515 0.469984 -0.193555 0.813282 -0.375132 -0.530256 0.412327 0.246108 -0.567431 0.123086 0.233359 0.423570 0.119091 -0.837292 0.030600 0.379866 0.265389 -0.540265 -0.212398 -0.151749 0.080701 -0.153170 -0.265971 0.342224 0.116930 -0.358834 0.346273
good 0.061314 -0.265620 -0.036199 0.254616 -0.008344 -0.251109 0.163091 0.394407 -0.432657 0.070672 0.423848 0.002756 0.251405 -0.012559 -0.449882 -0.179811 -0.106281 1.032864 0.457802 0.171306 -0.169122 0.536214 0.234352 -0.656826 -0.279307 0.063885 0.403404 -0.935993 0.289712 -0.111344 -0.232613 -0.495390 -1.054014 0.095760 0.454164 0.180015 0.107888 0.414668 1.115841 0.117942 0.136360 -0.226696 0.196347 -0.125488 -0.171438 -0.718736 0.073327 -0.347762 0.205016 0.665518
kan -0.519526 -0.234058 0.082255 -0.005230 0.201720 0.334147 0.138793 -0.114783 0.083318 0.711926 -0.868838 0.112628 0.474547 -0.282962 -0.575486 0.007367 -0.187847 0.651196 0.054371 -0.409199 0.177941 0.174039 -0.344396 0.051530 0.565483 -0.491101 0.596666 -0.498995 -0.455532 0.466852 -0.044375 -0.442668 -0.199212 0.123529 0.104239 0.183907 -0.533758 -0.581424 0.495388 -0.185556 -0.143736 -0.440563 -0.024208 -0.341347 0.139546 -0.613401 0.816563 0.168727 0.045631 0.295820
now -0.020324 0.418921 0.127018 -0.287628 0.043314 -0.057452 -0.039819 0.226344 -0.019534 0.268259 -0.245612 0.309720 0.021339 -0.144868 -0.681345 -0.487728 0.295741 0.124108 0.347181 -0.638512 -0.745985 0.209622 0.009261 0.129637 0.418977 -0.434649 0.069619 0.463580 -0.156964 -0.162415 -0.197908 0.131812 0.048464 0.169007 -0.676527 0.099229 -0.197592 -0.341996 0.777542 -0.436825 0.703612 -0.776151 0.539931 -0.020014 0.013005 -0.612490 0.875899 0.122399 -0.181164 0.260945
seyde 0.317225 0.207763 0.504471 -1.022484 0.072878 -0.181937 0.286370 0.063654 -0.307925 0.743768 -0.065002 0.290250 -0.277180 -0.128163 -0.089861 -0.087945 0.645685 -0.287505 0.312708 -0.224370 -1.013618 -0.426204 -0.129172 0.789185 -0.941087 -0.105357 0.964237 0.674983 -0.399726 -0.500174 -0.063733 -0.000962 1.034713 0.315998 -0.690587 -0.462227 0.021499 -0.116782 0.723547 -0.519396 0.667174 0.222883 -0.081414 0.705628 0.306809 -0.437356 -0.076901 -0.292894 -0.406714 -0.217179
So 0.060104 0.026274 -0.089690 -0.376778 -0.002094 0.137311 0.270664 0.366130 0.052737 -0.025534 0.218362 0.193153 0.136570 0.031753 -0.188107 0.822221 -0.065780 -0.025615 0.753579 0.084372 -0.267758 -0.168166 0.227920 -0.259017 0.032581 -0.049068 0.736259 -0.077932 -0.471717 -0.298203 0.146195 -0.322591 0.478660 0.377953 -0.320214 -0.153019 -0.070780 0.225778 0.654168 -0.382453 0.284438 -0.225383 0.017653 0.376733 -0.418795 -0.333381 0.259679 0.334749 -0.069755 -0.109325
Whan -0.243243 0.215523 0.361149 -0.192278 -0.126039 0.780269 -0.235744 0.851602 -0.397453 0.085545 -0.665614 0.594245 0.357882 -0.121839 -0.486886 0.496537 0.467744 -0.469116 0.283220 -0.392647 0.095959 -0.657823 0.411043 -0.194429 -0.632263 -0.280138 0.781431 0.178227 0.131878 0.005257 0.471281 -0.039746 1.128521 -0.054039 -0.204110 -0.504030 -0.048968 0.003645 0.912514 0.521068 -0.255852 -0.077242 0.171437 0.678731 0.045164 -0.546360 0.211086 0.296315 -0.078401 -0.379070
nevere -0.867832 0.150388 0.310834 0.327709 0.293448 0.839376 -0.491310 0.149593 0.294121 0.466583 -1.089406 -0.221551 0.603443 -0.462087 -0.542317 -0.027793 0.258616 0.071669 -0.055447 -0.309385 0.104675 -0.848830 -0.699706 -0.181196 0.845509 -0.943889 0.245813 -0.159499 -0.275816 0.475918 -0.526809 -0.853415 0.658763 0.176079 -0.154653 0.147665 0.083626 -0.177359 0.787034 -0.536359 0.136583 -0.729483 -0.188235 0.634851 0.346529 -0.880513 0.057742 0.163362 -0.378493 0.165864
Ther -0.753357 -0.289729 0.608804 -0.589471 -0.242181 0.350723 0.593553 0.598184 -0.497009 0.646772 -0.645017 -0.437041 -0.008884 -0.652275 0.231600 0.395824 0.152508 0.431893 0.436411 -0.503417 0.053469 -0.558796 -0.369684 -0.170415 0.849161 -0.674963 1.228358 0.033013 -0.432160 0.402222 -0.114458 0.000791 -0.006941 -0.502012 0.317424 -0.059938 -0.396616 -0.580968 0.918041 -0.202766 0.107859 -0.076651 0.126963 -0.404658 0.711355 -0.817275 0.552621 0.718479 -0.122225 0.383125
after 0.207746 0.359642 0.766091 -0.705809 0.357358 -0.003825 -0.280833 -0.131759 -0.172521 0.007518 -0.354671 -0.149494 0.054112 0.086389 -0.273187 -0.661249 0.481210 -0.039878 -0.039981 -0.281948 -0.466548 0.145705 0.509765 0.289968 -0.291216 -0.117418 0.531270 0.291789 -0.165969 -0.274009 -0.143465 0.011561 0.368737 0.163768 -0.280549 -0.014797 -0.523704 -0.196580 0.362995 -0.428641 0.187010 -0.414871 -0.062559 -0.182162 -0.046270 -0.544985 0.168112 -0.408428 -0.266567 0.203326
wyf -0.219000 -0.223409 -0.050503 0.090978 -0.178378 -0.193647 0.044996 0.438760 -0.550409 0.261171 0.409214 -0.160807 0.717729 -0.242735 -0.474353 0.543294 0.511795 0.597334 0.155362 -0.159171 -0.256222 0.150210 -0.019857 -0.263664 -0.486161 0.058276 0.689706 -0.294558 -0.274277 -0.018751 -0.362856 -0.253933 -0.496114 0.211857 -0.524231 -0.019424 -0.041998 -0.041483 0.724024 0.631622 0.148188 0.280973 0.103359 0.669574 0.061701 -0.478823 -0.172115 -0.204455 -0.012680 -0.032640
yet -0.419175 0.229593 0.173706 0.076916 -0.072127 -0.128333 -0.378993 0.321161 -0.216839 0.421577 -0.792099 0.230400 0.343185 -0.307486 -0.489581 -0.442195 0.344844 0.064502 0.094064 -0.570201 -0.194200 -0.049288 -0.236059 -0.078025 0.067619 -0.773681 0.389964 0.389406 -0.326500 0.067961 -0.374181 -0.315437 0.414655 0.147355 -0.561823 -0.205400 -0.306782 -0.323390 0.761762 -0.442449 0.132820 -0.717697 -0.015254 0.367785 0.479619 -0.815126 0.164909 0.214946 -0.544006 -0.007698
seith 0.689635 -0.203766 -0.059564 0.177337 -0.206977 0.060063 0.330775 0.911336 -0.668805 0.624956 -0.356418 0.808102 0.229334 -0.171434 0.293531 0.030797 -0.036209 -0.758533 1.304797 -0.543116 0.045081 -0.604644 0.667578 0.419403 -1.254507 0.436274 0.342043 0.605629 -0.364011 -0.252862 0.020842 0.408684 0.244544 -0.733224 -0.351343 -0.583935 0.173964 -0.328503 0.777512 -0.165095 0.193596 0.483450 0.340838 -0.019323 0.752402 -0.787634 1.064085 0.660795 -0.357260 0.169443
noon -0.915463 -0.311013 0.640184 0.434326 -0.102469 0.492331 -0.242348 0.505936 0.175120 0.530924 -0.537619 0.318604 0.293919 -0.302511 0.170742 -0.100022 0.196802 0.296095 0.381136 0.062482 0.359411 -0.673388 -0.498858 -0.411329 1.160686 -0.945533 -0.167491 -0.407746 0.355159 0.190052 -0.318603 -0.231673 -0.215954 0.096265 0.470240 -0.127617 0.002590 -0.038136 1.107069 -0.266717 0.030740 -0.557961 0.171956 0.686466 0.655879 -0.097918 0.203370 0.193789 0.114899 -0.014700
moore -0.415473 -0.490708 -0.302135 0.139033 -0.781831 -0.641746 0.026661 0.754987 0.057934 0.341077 0.109671 0.282714 0.599602 0.139607 -0.174844 0.270250 -0.003403 -0.077966 -0.031204 -0.062506 0.367734 1.250809 -0.246408 -0.444027 -0.309755 -0.482763 0.648709 0.087150 -0.418585 0.302718 -0.248534 -0.212417 -0.412589 0.392670 0.690596 0.115569 -0.357164 -0.253733 0.190310 -0.184760 0.350981 -0.350436 0.046751 -0.022093 0.501530 0.080667 0.263451 -0.056504 0.327661 0.273151
gan -0.156706 0.065430 0.563417 -0.091513 -0.698584 -0.365198 0.113024 0.724452 -0.583531 -0.278186 -0.260646 0.432347 0.593937 0.287429 -0.428792 0.136274 0.493024 0.080143 -0.454952 -0.073056 0.000019 0.165958 0.256398 -0.325512 -0.731023 -0.027799 0.387338 0.023308 0.099374 0.008111 -0.021749 -0.108215 0.265844 0.567365 0.467946 0.338351 -0.196782 0.414407 0.104857 0.551576 0.055570 -0.115340 -0.284436 0.497223 0.286304 -0.490004 -0.373715 -0.492286 -0.459365 -0.207523
She -0.052532 -0.121130 0.467947 -0.339068 0.082753 0.074733 0.112727 -0.095421 -0.154517 0.149098 -0.652657 -0.027680 0.343050 -0.077342 -0.433644 0.195120 0.239471 0.119162 0.156980 -0.036229 -0.171331 -0.873472 -0.266389 0.064255 -0.305801 -0.407804 1.002454 -0.113418 -0.100768 0.152838 -0.135424 -0.529431 0.637390 0.433674 -0.708902 0.296363 -0.260779 -0.161616 0.594435 -0.249539 -0.371684 0.015948 -0.293006 0.708808 0.098378 -0.965173 0.086142 -0.090601 -0.525328 -0.289702
seyde, 0.168985 -0.455072 -0.013121 -0.408486 0.147676 -0.360053 0.283613 -0.309432 -0.384462 0.367102 -0.036065 0.195221 0.171455 -0.049895 0.268401 -0.340618 0.289563 -0.041383 0.188822 -0.233151 -0.506367 -0.411903 -0.313773 0.384317 -0.665338 0.012465 0.311695 0.464605 -0.101119 -0.332317 -0.562791 -0.171433 0.006222 0.369462 -1.176208 0.176102 -0.093176 -0.516781 0.112328 -0.709240 -0.077917 0.471523 -0.059052 0.167376 0.414152 -0.591716 -0.107722 -0.401933 -0.734771 -0.002886
do -0.159221 -0.015204 0.465760 -0.047681 0.111338 0.031241 -0.359898 -0.239085 -0.386660 0.764998 -0.134507 0.380803 0.723836 -0.018459 -0.168923 -0.441090 0.051897 0.490653 0.184399 -0.419632 -0.166802 0.514429 -0.223662 -0.032487 0.599608 -0.084711 0.106775 0.031004 -0.221950 -0.047542 0.141353 -0.328704 -0.698443 0.506447 0.014467 0.419889 -0.637352 -0.147140 0.527773 -0.116264 0.317442 -0.168543 0.141317 -0.204090 -0.191785 -0.387504 0.491950 -0.601639 -0.534375 0.396030
evere -0.377618 0.182839 0.253387 -0.293972 0.153586 0.014962 -0.154065 0.354499 -0.083817 -0.029970 -0.408584 -0.085278 -0.154868 0.088617 -0.224704 0.104531 -0.132981 -0.128789 0.105668 -0.323208 -0.665138 -0.256675 -0.176811 0.158283 -0.054289 -0.512814 0.108200 0.094344 -0.394432 -0.314169 0.093365 -0.136382 0.961369 -0.041289 0.095694 -0.183521 0.136893 0.006683 1.094300 -0.608064 0.538537 -0.652589 0.464546 0.749008 -0.179702 -0.419154 0.179521 0.006551 -0.101157 -0.101796
how -0.125883 0.067866 0.230944 -0.418175 0.656690 0.446876 -0.031681 -0.019171 -0.191796 0.663156 -0.534450 0.335224 0.249536 0.103835 -0.031565 -0.129265 0.346150 -0.074124 0.307887 -0.393248 -0.131409 -0.318725 0.012634 0.250159 0.207302 -0.099230 0.524819 -0.214472 -0.483099 -0.066710 0.212346 -0.496386 0.367710 0.373492 -0.432290 -0.317041 -0.300163 -0.447877 0.350221 -0.466595 -0.109554 -0.392526 -0.170575 0.249884 -0.102114 -0.506394 0.757224 -0.491271 0.066065 0.209805
telle 0.088169 0.110020 0.194363 -0.132636 0.468385 -0.066125 -0.446968 -0.199528 -0.020742 0.314761 -0.044789 -0.617419 0.866263 -0.483679 -1.080471 0.064716 0.155372 0.376999 0.033944 -0.233629 -0.539610 0.799005 -0.044659 0.206715 0.086398 -0.078353 0.431004 0.051359 -0.657051 0.390716 -0.567763 -0.227674 -0.139632 0.782970 -0.941868 0.675824 0.032463 -0.436163 0.242194 0.062768 0.561276 -0.592365 0.074263 -0.216875 -0.209609 -0.631101 0.486634 -0.217381 -0.352071 0.256774
thus 0.360718 0.316421 0.344938 -0.521325 -0.033486 0.048561 0.122702 0.377445 -0.239738 0.038234 -0.240785 0.860105 -0.353085 0.289268 -0.474345 -0.641636 0.650869 -0.433228 0.162758 -0.084007 -0.754659 -0.493343 0.165269 0.569790 -0.779335 -0.076093 0.567405 0.506148 -0.160692 -0.593239 0.080449 -0.039349 1.025483 0.274349 -0.587713 -0.331171 -0.038623 0.264729 0.599569 -0.284898 0.312020 -0.041697 0.157996 0.745877 -0.121336 -0.587689 -0.145364 -0.459663 -0.324738 -0.047085
up 0.158692 -0.499773 0.132207 0.056966 -0.474424 -0.558071 0.022318 0.201459 0.124735 -0.265417 -0.045210 0.275244 0.180425 0.684792 -0.498399 0.271052 0.578852 -0.458073 -0.272002 0.278145 -0.310807 -0.285656 -0.375677 0.064277 -0.924555 0.231342 0.494885 0.313027 0.096834 -0.266266 -0.185808 -0.398614 0.541724 0.298442 -0.042617 0.611561 0.084083 0.346938 0.313726 -0.058564 0.305516 0.882912 -0.172688 0.736596 -0.079699 -0.243316 -0.097979 -0.556604 0.116055 0.124124
make -0.096373 -0.008338 -0.026152 -0.105277 0.114777 -0.116219 -0.176168 -0.035971 -0.112811 0.669456 -0.017562 0.072393 1.159347 -0.374729 -0.675956 -0.088783 0.417579 0.461244 0.076714 -0.376393 0.013981 0.281219 -0.406543 -0.223819 0.285749 -0.124761 0.388545 -0.496993 -0.015024 0.092222 -0.187211 -0.426781 -0.129322 0.704307 -0.450790 0.648003 0.019969 -0.239789 0.378651 -0.182718 0.036280 0.306704 0.050039 -0.386552 -0.223666 -0.128877 0.377555 -0.276778 -0.201881 0.030829
thise 0.080093 0.318449 0.608704 0.142911 0.069098 -0.073911 -0.244943 0.216789 0.529170 -0.138473 -0.325630 0.450753 -0.134056 0.237312 -0.560782 -0.804209 0.099279 -0.136130 -0.222652 -0.219214 -0.201110 0.412322 0.355855 -0.002898 -0.432171 -0.120732 -0.498013 -0.617462 0.334535 -0.426541 0.541915 -0.053276 0.558012 -0.336613 1.092483 -0.262545 -0.265838 0.456016 0.362133 0.045312 0.171110 -0.259719 0.267599 -0.217454 -0.546904 0.377366 0.017184 -0.189198 0.523197 0.194952
koude -0.323659 -0.245483 -0.108818 -0.476755 0.242068 0.397462 0.117258 -0.079110 -0.230743 0.573778 -0.710083 -0.038005 0.260332 -0.264780 -0.318073 0.205841 0.205118 0.175271 0.158553 -0.357478 0.182116 -0.576893 -0.727517 0.150267 0.321697 -0.119776 1.104377 -0.271700 -0.566303 0.292528 -0.065412 -0.751627 0.336119 -0.041705 -0.279580 0.213201 -0.216437 -0.245524 0.527930 -0.343436 -0.168237 0.426718 0.032529 0.017125 0.026802 -0.566200 0.438634 0.031591 0.059001 0.534417
Now 0.172619 0.288399 0.108365 -0.390697 0.245815 0.134897 -0.480315 -0.137506 -0.045173 0.490733 -0.178672 0.356310 0.469704 -0.082018 -0.131122 -0.216350 0.210913 0.017673 0.208647 -0.593671 -0.436729 0.210646 0.246554 0.366092 -0.172864 -0.122037 0.264992 0.610244 -0.016511 -0.096039 0.106403 0.056833 0.176915 0.532249 -0.900996 0.541808 -0.306795 -0.773147 0.291449 -0.491646 0.403981 -0.408252 0.201031 -0.354286 0.015455 -0.420242 0.849886 -0.029096 -0.436417 -0.108206
folk -0.388572 0.265202 0.801465 -0.041375 -0.214501 0.418504 0.160481 0.609633 0.004833 0.020314 -0.033182 0.568943 0.019568 0.217493 -0.379908 -0.682921 0.393531 0.202256 0.193000 -0.411249 0.148684 0.109164 0.188811 -0.424901 0.296423 -0.453004 0.128193 -0.624059 0.575096 -0.030357 0.361257 0.131791 0.324755 -0.002715 0.751142 -0.352597 0.035543 0.482426 0.668174 0.157898 -0.096316 -0.081823 0.391964 -0.255639 0.052059 0.153624 -0.096193 -0.459563 0.544518 0.130855
By -0.277145 -0.479242 -0.139372 0.413406 0.575373 -0.029442 -0.039016 0.085450 0.296816 0.708384 0.188528 0.588761 0.525905 0.292846 0.404673 0.873198 -0.021766 0.069623 0.112687 0.111683 -0.181541 0.493011 0.574793 -0.345805 -0.809981 0.652069 -0.667924 -0.174669 -0.010530 -0.301291 0.322710 0.148288 -0.388626 0.298594 0.263820 0.246904 0.171530 0.037799 1.019815 -0.290271 0.246164 -0.107261 0.346462 0.098243 -0.180912 0.516845 0.841205 0.345280 0.668294 0.051767
fro -0.130134 -0.088497 0.209302 0.155172 -0.175938 -0.181640 -0.355665 0.163984 -0.108776 0.037715 0.116136 0.676917 0.669616 0.324577 -0.126424 0.237026 0.183149 -0.381551 -0.197087 -0.173735 0.067537 -0.058047 -0.241257 -0.120448 -0.065950 0.079055 -0.222225 0.333670 -0.168970 0.171267 0.163926 -0.073843 0.019192 0.523094 -0.054397 0.371930 0.027814 -0.010024 0.047648 0.369800 0.438966 -0.185852 0.061219 0.631247 -0.188079 -0.206401 0.356521 -0.602797 -0.186918 -0.036935
am -0.131227 -0.374916 -0.358640 0.068999 0.425361 -0.040863 0.089657 -0.336256 -0.088502 0.533345 0.205199 0.054541 0.190868 -0.141461 -0.240469 -0.376466 -0.425834 0.299631 0.344443 -0.260523 -0.579476 0.441685 -0.277291 0.053054 -0.086162 -0.155112 -0.245599 0.059997 -0.238633 -0.095644 0.099947 0.152710 -0.279823 0.324909 -0.625770 -0.119285 -0.149455 0.076518 0.829199 -0.380314 0.038946 -0.697763 0.540898 -0.127689 -0.216025 -0.412839 0.064786 -0.468560 -0.116181 0.075351
oother -0.945564 -0.002129 0.838990 0.761732 -0.013432 0.420040 -0.315122 0.749625 0.212435 0.315781 -0.442037 0.315346 0.280331 -0.321608 0.186447 -0.380947 0.439834 0.551426 0.238986 0.353238 0.510152 -0.084159 -0.221669 -0.379836 0.704663 -0.937073 -0.241843 -0.806479 0.556478 -0.124848 -0.196885 0.110193 0.112924 -0.190552 1.129502 -0.177104 0.206877 0.373505 0.744529 0.141982 0.012536 -0.247770 0.454740 0.297264 0.591528 0.719628 -0.016527 0.054360 0.359548 -0.117385
tyme -0.177135 0.030200 -0.124345 -0.251270 -0.351996 -0.013321 -0.205289 0.566547 -0.231384 -0.031027 0.052283 0.383352 0.122449 -0.155397 -0.411992 0.488574 0.114461 -0.037691 0.476351 0.102736 0.047825 0.242972 -0.014088 -0.116452 -0.026528 -0.265639 0.854100 0.369001 -0.373942 -0.075909 0.115756 0.066276 0.083911 -0.030661 0.243567 -0.362995 -0.280302 0.087876 0.677710 0.278289 0.300714 0.010563 0.455920 0.414440 -0.137869 0.023232 -0.097484 0.455156 0.148211 0.010190
Or -0.412116 0.019833 -0.286078 -0.319925 0.325150 -0.439577 -1.064732 -0.035043 0.255461 0.018776 -0.643844 0.006785 0.417265 -0.443795 -0.656243 -0.467148 -0.039457 0.160365 -0.008103 0.274865 0.254270 0.878730 -0.711320 0.121036 0.146229 -0.667758 0.131745 -0.184190 -1.019995 -0.157537 -0.055554 0.146466 0.452161 0.104428 0.449854 0.174927 -0.520626 0.131500 0.460640 -0.147886 0.549235 0.117684 0.733830 -0.344795 -0.478555 0.769004 -0.085478 0.217853 -0.118192 -0.176512
er -0.164344 0.393132 0.087965 -0.279390 0.303875 0.374944 -0.487358 -0.019573 -0.023661 0.109244 -0.435980 0.246368 0.277967 -0.396792 -0.074013 0.313751 -0.032115 -0.199203 0.122869 -0.139137 -0.166656 0.221266 0.397570 -0.149480 0.084213 -0.064705 0.213791 0.508331 -0.633827 -0.039885 0.303591 0.230515 0.431140 0.276487 -0.156962 -0.147828 -0.394578 0.163105 0.244713 0.012104 0.115405 -0.637770 0.276991 0.113896 -0.191334 -0.084345 0.089525 0.249735 -0.396050 -0.325601
bothe 0.007906 0.032822 0.046497 0.490915 -0.457133 -0.357935 -0.175196 0.166193 0.017277 -0.178659 -0.121940 -0.080588 0.351564 0.423382 -0.565761 -0.206204 0.141547 -0.156730 -0.085393 0.065327 0.222457 0.377970 0.103420 -0.182929 -0.497204 -0.189231 0.539263 -0.127345 0.184309 -0.002388 0.209126 -0.191563 0.037774 0.244850 0.464141 0.360412 -0.305418 -0.028016 0.440774 0.367050 -0.099624 0.049055 -0.066276 0.363743 -0.119373 0.044876 -0.026745 -0.733934 0.172840 -0.135781
Thanne -0.152008 0.240133 0.062616 -0.590484 0.265840 0.598293 -0.334587 -0.223073 0.207692 0.727717 -0.917414 0.067404 0.314172 -0.143318 -0.417570 0.263042 0.121938 -0.355837 -0.072805 -0.825327 -0.251212 -0.040838 0.036487 0.587338 -0.471863 -0.107464 0.638199 0.568151 -0.698160 -0.076348 0.233537 -0.244291 0.935553 0.199412 -0.558795 -0.011033 -0.616626 -0.697653 0.543897 -0.412216 0.019252 -0.332765 0.170760 0.399003 0.005890 -0.455254 0.354686 0.019591 -0.281162 -0.206541
she, -0.083410 0.258266 0.006762 -1.188531 0.401744 -0.351766 0.083529 -0.302051 -0.588555 1.019103 0.695774 0.624983 -0.333479 -0.254330 0.334223 -0.133817 0.124123 0.178312 0.100629 -0.697252 -0.573100 0.186071 -0.248916 0.353025 -0.932891 0.004006 -1.002632 -0.264601 -0.126980 0.072212 0.049403 0.108251 0.034037 0.444657 -0.659210 -0.561406 0.801166 -0.453001 0.276177 -0.913008 0.119132 -0.461189 0.373123 0.232519 0.214925 0.187147 0.030945 -0.041085 -0.141864 -0.150885
O -0.002020 -0.318409 0.060239 0.734934 0.078978 0.054910 0.244343 0.293935 0.202546 0.117389 0.565771 -0.026873 -0.157152 -0.321396 0.350732 0.046206 -0.106790 0.133113 0.726324 0.355310 0.039725 0.117920 0.553443 -0.018999 -0.054631 0.173679 -0.376403 -0.302907 0.546558 -0.350840 -0.229146 0.461074 -0.268181 -0.289155 -0.061378 -0.772769 0.407040 0.282154 -0.055244 0.398345 -0.463428 0.047386 0.123094 0.170362 -0.259635 0.476202 0.271645 0.287292 0.478301 -0.229391
noght -0.505283 -0.247693 0.198286 -0.056969 0.114876 -0.100898 0.015189 0.008954 -0.104963 0.499927 -0.406786 -0.260282 0.545847 -0.296665 -0.553497 0.271610 0.048524 0.557897 -0.174992 -0.346872 0.120291 0.156724 -0.378197 -0.235458 0.308918 -0.408178 0.562174 -0.136901 -0.288984 0.356416 -0.176321 -0.303290 -0.022029 0.232551 -0.129704 0.354200 -0.341777 -0.200440 0.563661 -0.278786 0.044349 -0.338973 -0.025106 -0.200991 0.271611 -0.581022 0.205429 0.000593 -0.172688 0.075706
Ful 0.083345 -0.418831 -0.319535 -0.040664 -0.569645 -0.079041 0.463894 0.775760 0.125760 -0.480209 0.284887 -0.459861 -0.187163 -0.337314 -0.012225 0.616571 -0.039499 -0.234561 0.709476 0.454623 -0.107721 -0.260858 -0.138515 -0.291179 -0.151140 -0.445861 1.685599 -0.074110 -0.367228 -0.309524 -0.114451 0.042188 0.661710 -0.318158 0.122622 -0.189863 -0.047378 0.387033 0.661582 -0.216150 -0.028526 0.445811 0.220934 0.115893 -0.158509 -0.150980 -0.394991 0.713458 0.196511 -0.187614
shul 0.197362 0.704878 0.249820 -0.898239 0.289887 0.443310 -0.589201 -0.423884 0.189577 0.124518 -0.275480 0.697733 0.171141 0.642066 -0.723603 -1.387725 0.269458 -0.206160 -0.003594 -1.004121 0.193629 0.687960 0.205075 0.019940 0.427817 0.111876 -0.154678 -0.159964 0.170102 0.021857 0.458349 -0.464710 -0.015643 0.406697 0.018716 -0.201000 -1.001109 -0.336808 0.198694 -0.597398 -0.207368 -0.566529 0.082006 -0.902518 -0.383336 -0.209249 0.126125 -0.839497 -0.172817 0.768035
forth 0.337472 -0.034572 -0.031086 0.001881 -0.055540 -0.739890 -0.299995 0.113578 -0.427922 -0.198210 -0.006729 -0.149419 0.073236 -0.043952 -0.647039 -0.389503 0.015841 -0.280864 -0.072613 -0.040942 -0.455937 -0.032563 -0.089788 0.266791 -0.729309 -0.113657 0.447467 0.315241 -0.094551 -0.100696 -0.295874 -0.327757 0.270518 0.268219 -0.653254 0.074150 -0.003113 -0.068747 0.125406 0.161827 0.135590 -0.074246 -0.145470 0.507577 -0.055016 -0.923830 -0.139325 -0.318268 -0.516505 -0.021869
saugh -0.402097 0.050913 0.422164 -0.623639 0.535146 0.648027 -0.327451 0.673785 -1.015827 0.255006 -0.809903 0.230771 -0.033904 -0.448490 -0.596036 0.328722 0.478609 -0.242977 -0.076865 -0.300653 -0.357445 -0.844536 0.065051 0.318980 -0.546668 -0.224208 0.994917 0.198801 -0.529106 0.087609 0.123223 -0.111930 1.296784 -0.113028 -0.532131 -0.470794 0.138424 -0.332602 0.560290 0.547597 -0.203009 -0.145571 0.160512 0.369025 0.083356 -0.969787 0.614482 0.100381 -0.277737 -0.293992
made -0.121834 -0.163454 0.173113 0.074565 -0.133490 -0.118415 -0.298691 0.346383 -0.097229 0.007585 -0.109474 0.145297 0.782501 -0.109162 -0.895457 0.304799 0.194436 0.069689 -0.135991 -0.039768 0.012317 0.153410 -0.296882 -0.174713 -0.412003 -0.075910 0.394931 -0.135875 -0.188090 0.147849 -0.129811 -0.556277 0.403184 0.406876 0.014801 0.523290 0.111304 0.387081 0.465116 0.260091 0.105227 0.141560 0.159493 0.465433 -0.057845 -0.275731 0.054713 -0.200414 -0.280840 -0.041259
thanne 0.240284 0.452201 0.111849 -0.631401 0.192559 0.069174 -0.670967 -0.097187 -0.235872 0.284663 -0.109322 0.292209 0.413090 0.247545 -0.593896 -0.516442 0.615284 -0.268882 0.028291 -0.785098 -0.176521 0.420626 0.277781 0.169271 -0.400106 0.184946 0.595276 0.387168 -0.161599 -0.102059 0.014196 -0.306562 0.145918 0.257959 -0.513751 -0.120662 -0.530849 -0.414250 0.317258 -0.333109 0.144192 -0.007944 0.098792 -0.136718 -0.014169 -0.326077 0.300766 -0.523108 -0.112468 0.361307
word -0.184437 -0.131155 0.049856 0.005136 0.241815 -0.014899 -0.735562 0.357162 -0.538071 0.243399 -0.928761 0.571704 0.479911 -0.464029 -0.321554 -0.237051 0.612927 0.226846 -0.218809 0.500300 0.109055 -0.077975 -0.170192 -0.214048 -0.431686 -0.009623 0.637651 -0.125695 -0.367947 0.027169 -0.178269 -0.388470 0.010345 -0.059504 0.422251 0.320013 -0.293595 0.304234 0.500063 0.263113 0.116747 0.481228 0.178400 0.125070 0.016547 -0.158668 0.209350 0.341190 -0.233190 0.324740
anon 0.380886 0.095668 0.041562 -0.246516 -0.264580 -0.083460 -0.028348 0.433200 -0.357438 -0.090319 -0.315447 0.431833 0.003111 0.058940 -0.450183 -0.096947 0.449171 -0.522275 0.127540 -0.080096 -0.494348 -0.371427 0.089873 0.246318 -0.120436 -0.034428 0.353572 0.576330 -0.461763 -0.303792 -0.205271 0.050243 0.532487 -0.037528 -0.392403 -0.020819 -0.121775 -0.127992 0.545737 -0.161383 0.358844 0.323876 0.258818 0.236363 0.035515 -0.359761 0.255022 0.187414 -0.215455 0.061691
love -0.296819 0.183571 0.537209 0.435181 -0.171756 -0.064787 -0.175106 0.229925 0.134885 0.252435 -0.122606 0.137595 0.715487 0.349770 -0.431287 0.228733 0.149641 0.443233 0.117568 -0.175530 -0.164054 0.466028 0.391728 -0.478661 0.109117 -0.074453 -0.239861 -0.273287 0.306080 -0.049871 0.076293 -0.102740 -0.028318 0.724123 0.176203 0.489116 -0.125308 0.135615 0.977731 -0.039977 0.130283 -0.364216 0.194851 0.391762 -0.110896 -0.224242 0.336492 -0.449626 -0.000745 -0.074610
They 0.081401 0.263851 0.311098 -0.108200 -0.072971 0.411336 0.225726 -0.059669 0.336505 0.002721 -0.622819 0.277804 0.196363 0.369044 -0.747200 -0.468253 0.008935 -0.064063 0.015568 -0.347239 0.053214 -0.199467 0.159758 -0.250253 0.054065 -0.163151 0.485747 -0.498592 0.391276 -0.171250 0.584602 -0.564334 0.694019 0.202263 0.210163 0.173634 -0.558908 0.156162 0.442657 -0.103893 -0.470528 -0.141962 -0.173233 -0.151211 -0.403192 -0.447011 0.076195 -0.515191 -0.018241 0.125077
conseil -0.286824 -0.181569 0.578894 0.318744 -0.038023 -0.090605 -0.179774 0.115061 -0.251771 0.266264 -0.206100 0.357452 0.382468 0.064295 -0.338087 -0.426476 -0.052264 0.585949 0.213164 -0.408065 0.066108 0.661371 0.424983 -0.578904 0.135400 0.169937 -0.101856 -0.305309 0.448539 -0.102811 0.105476 -0.208315 -0.839858 0.246048 0.629879 -0.167481 -0.523757 0.467423 0.969881 0.386603 -0.303728 -0.524273 0.326458 0.180847 -0.027354 -0.480788 0.205496 -0.704694 -0.027467 0.691111
grete -0.037228 -0.284801 0.166401 0.526968 -0.134937 -0.345862 -0.134426 0.089660 0.327651 -0.081593 0.352978 0.377633 0.412160 0.676774 -0.233412 0.136204 0.212108 -0.159683 -0.063849 0.038682 -0.030608 0.374632 0.284507 -0.327807 -0.410200 0.414609 -0.648495 -0.113453 0.285999 -0.134086 -0.100190 -0.255109 -0.249993 0.400774 0.179896 0.350219 0.166521 0.355761 0.291845 0.151542 0.206880 -0.032603 0.066462 0.444906 -0.245522 0.058213 0.493134 -0.545958 0.396565 0.394454
me, 0.168696 -0.073404 0.100125 -0.270277 0.065747 0.005228 -0.134157 -0.180691 0.232682 0.186090 -0.090867 0.119991 0.534166 0.105831 -0.072448 0.137891 -0.265241 -0.063759 0.065755 -0.226730 -0.128343 0.741375 0.440365 -0.167310 0.086668 0.209644 0.116632 0.380329 -0.322096 -0.173528 0.416090 0.013350 -0.122595 0.628257 -0.047481 0.593172 -0.714653 -0.135631 0.113474 -0.255416 0.166786 -0.423246 0.084058 -0.436243 -0.372373 -0.180141 0.410520 -0.208464 -0.360119 0.033105
olde 0.076691 0.156347 0.535657 0.016883 0.084303 -0.074908 0.260876 0.401328 -0.026416 -0.117805 0.374914 -0.155360 -0.443792 0.348584 -0.142426 -0.274971 0.322930 0.346631 -0.074704 -0.078121 -0.560449 0.162992 0.603822 0.044581 -0.238664 0.270989 -0.030652 -0.431404 0.299097 -0.522910 -0.019250 0.097068 -0.434123 -0.379687 0.559004 -0.444826 0.019284 0.089439 0.458052 0.194055 0.385452 0.050460 0.090869 -0.117503 -0.112860 -0.023262 -0.213231 -0.345866 0.744107 0.416718
What -0.427363 0.117683 0.309044 -0.635388 0.275129 0.703328 0.174754 -0.084262 -0.343311 0.636638 -0.654645 0.085612 0.597783 -0.543577 -0.043777 0.373511 0.053925 0.089861 -0.111112 -0.621803 0.058931 0.249178 -0.085594 0.113286 0.662289 0.091045 0.373670 0.501733 -0.580761 0.452395 -0.034706 0.152046 -0.340411 0.225078 -0.230660 -0.096113 -0.447348 -0.604193 0.093339 -0.009967 -0.037112 -0.251022 0.202004 -0.387976 0.362422 -0.195133 0.104001 0.191846 -0.437031 0.013936
Til 0.131207 0.223527 0.082829 -0.447022 -0.267700 0.136049 -0.284982 0.260901 -0.177378 -0.092064 -0.802857 0.705612 0.320885 -0.045739 -0.280675 0.298964 0.173491 -0.604827 0.082205 -0.137762 0.102193 -0.661292 0.220068 -0.171343 -0.271759 -0.073540 0.527138 0.548011 -0.304471 -0.018286 0.531615 -0.090420 0.625826 0.025719 -0.119180 -0.034463 -0.485429 0.119122 0.615984 0.380193 0.017715 -0.147863 -0.079429 0.659493 -0.089578 -0.564225 0.359250 0.353062 -0.425060 -0.133317
man, -0.300549 -0.394392 0.154451 -0.021048 -0.123158 -0.438947 -0.238024 0.374413 -0.621654 0.503814 0.333399 0.580608 0.130564 -0.249914 0.037446 -0.136301 0.301079 0.417485 0.294104 0.092586 0.078982 -0.008538 -0.335440 -0.407712 0.131134 -0.232023 -0.060705 -0.210419 0.069625 -0.025947 -0.142498 0.287044 -0.728989 0.117947 0.007362 -0.107712 0.025137 0.205512 0.773561 0.192033 0.228919 0.286573 0.474287 -0.294399 0.130010 0.056928 0.107490 0.174780 0.251303 0.184088
litel -0.275772 -0.006498 -0.132939 0.143852 -0.060583 -0.411904 -0.058514 0.393972 -0.487035 0.144826 0.314523 -0.247933 0.007701 -0.456483 -0.142884 0.052718 0.140887 0.903256 0.550561 0.247179 0.247337 0.139246 -0.143016 -0.469406 0.197261 -0.466914 0.355119 -0.267306 -0.046800 -0.140821 -0.286210 0.224750 -0.337985 -0.213560 -0.267643 -0.485404 0.141950 0.334521 0.593582 0.448811 -0.037916 0.013328 0.455735 -0.080668 -0.103019 -0.119676 -0.052888 0.171361 -0.220020 0.193895
tale -0.213620 0.162810 -0.074826 0.130091 0.064867 -0.316775 -0.166875 0.525104 -0.620100 0.164827 0.245318 -0.033732 0.458775 -0.521868 -0.293509 0.151177 0.232160 0.684794 0.212619 -0.173295 -0.211695 0.592256 0.323099 -0.231493 -0.004926 -0.113941 0.026583 0.044619 -0.300816 -0.142549 -0.776524 0.292219 -0.535041 0.074217 -0.423258 -0.225763 0.205196 -0.478107 0.308414 0.313585 0.485016 -0.134481 0.536500 -0.200443 0.268987 -0.261257 0.025045 0.377497 -0.296141 -0.070326
wyf, -0.388618 -0.341871 0.104680 0.167600 0.002006 -0.409120 -0.150864 0.201258 -0.279401 0.569890 -0.020694 -0.268674 0.576302 -0.233930 -0.232505 0.175707 -0.138399 0.181737 -0.176202 -0.253951 -0.503084 0.141209 -0.157176 -0.369395 0.043024 0.114536 -0.019961 -0.059891 -0.192257 -0.194327 -0.217732 -0.332113 -0.529852 0.099149 -0.007477 0.171631 -0.229429 0.234492 0.859131 -0.077502 0.507853 -0.332265 0.004066 0.244952 0.140827 -0.813732 0.019313 -0.132546 -0.054999 0.462864
If -0.380730 -0.014285 0.168646 -0.229236 0.209552 0.485027 -0.590548 -0.101617 0.051971 0.606418 -0.837265 0.619893 0.518764 -0.798909 -0.214963 -0.084117 -0.348153 -0.066435 0.467027 0.009870 0.228357 0.097490 0.196979 -0.100041 0.752835 -0.220806 -0.051193 0.294829 -0.558482 -0.288737 0.486771 0.118625 -0.274830 -0.085190 0.336642 -0.266722 -1.083028 0.023080 1.130403 0.339824 -0.062264 -0.266655 0.665075 0.164267 -0.557334 0.218562 0.204740 0.473833 -0.436486 -0.007526
seye -0.157794 -0.025007 0.301299 -0.352135 0.165358 0.288451 0.098466 0.050744 0.003199 0.587841 -0.510862 0.418654 0.422758 -0.142470 -0.368590 -0.397282 0.186019 0.117054 0.246661 -0.436458 -0.214446 0.318306 -0.052650 0.224510 0.439008 -0.391524 0.381916 0.110910 -0.648125 0.123501 -0.019638 -0.044538 0.196429 0.447179 -0.294238 0.081459 -0.476868 -0.654100 0.408992 -0.462050 0.298160 -0.675217 0.220639 -0.386358 0.109587 -0.421059 0.741466 -0.170943 -0.371439 0.013830
world -0.610538 0.058570 0.720499 -0.355179 0.080248 0.335339 -0.305411 0.687984 -0.924377 0.302586 -0.136673 0.891201 -0.094065 -0.025812 0.083494 0.409939 0.485840 0.277851 0.059771 -0.381903 0.120194 -0.360224 0.048518 -0.003138 0.276048 -0.068295 0.088710 0.612342 -0.029593 0.391665 -0.192428 0.375590 -0.399006 -0.076094 0.011750 -0.855485 0.172533 -0.274944 0.626249 0.773291 0.185195 -0.124369 0.470124 0.654462 0.661591 -0.219714 0.094185 0.132172 0.087141 -0.019329
Al -0.128547 0.024500 0.177498 -0.167469 -0.239076 0.131826 -0.113652 0.158776 0.242459 0.194428 -0.131741 0.359666 0.402409 -0.300280 -0.529170 0.602916 -0.157176 0.067588 0.454903 -0.087082 -0.055006 0.398654 0.286714 -0.293037 0.106551 -0.097106 0.488339 0.494124 -0.427527 -0.163519 0.292761 0.108535 -0.266579 0.349143 -0.126924 -0.269402 -0.942865 0.069290 0.963263 0.197546 0.049874 -0.489274 0.312417 0.516828 -0.401633 -0.136769 -0.154939 0.245933 -0.268921 -0.434696
wight -0.757123 -0.045278 0.467032 0.344196 -0.290241 0.241552 -0.017477 0.288232 -0.543959 0.780876 -0.992271 -0.146516 0.709565 -0.657333 0.319428 -0.310297 0.464968 0.743218 0.509458 0.151354 0.620374 -0.401986 -0.477026 -0.289394 0.672161 -0.547157 0.959283 -0.057431 0.115729 0.262537 0.050733 0.187028 -0.312910 -0.049714 0.653603 0.568374 -0.569951 -0.056888 0.653935 0.757227 0.173656 0.598083 0.079056 -0.235330 0.608822 -0.126652 0.399749 -0.306222 -0.315692 0.504523
though 0.021755 0.000896 -0.070449 -0.162628 -0.072889 0.081424 -0.060441 0.222580 -0.119708 0.335535 -0.710666 0.021696 0.185413 -0.202447 -0.031372 0.123737 -0.612696 -0.435031 0.245667 -0.401983 -0.284448 0.065791 0.319638 0.009003 0.191980 0.045482 0.203752 0.725351 -0.622503 -0.388437 0.632404 0.094113 0.086100 -0.012628 0.032807 -0.384217 -0.938620 -0.335608 0.926841 -0.360059 -0.045048 -0.384649 0.413992 0.219984 -0.266435 -0.579176 0.004517 0.146521 -0.536132 -0.110358
thyn 0.034198 -0.449045 0.067460 0.982729 0.048797 -0.686006 -0.264032 -0.105506 0.002276 0.024813 -0.245014 -0.417550 0.022270 0.090116 -0.179329 -0.050662 -0.621724 -0.057909 0.082539 -0.010634 -0.429440 0.130570 0.095918 0.198997 -0.257900 0.274335 -0.436000 0.686754 0.159176 -0.261075 -0.124112 -0.305669 -0.911677 -0.279563 0.151530 -0.345380 -0.422928 0.109751 0.627365 0.569752 0.077409 -0.620491 -0.012500 1.261380 0.097980 -0.659245 -0.091984 -0.598171 -0.198106 0.336040
owene -0.038517 -0.172442 0.108669 0.886551 -0.157677 -0.674591 -0.019007 0.153226 0.132316 -0.091736 -0.108972 -0.780314 -0.164261 0.036097 -0.027222 -0.034282 -0.222484 0.247577 0.052395 0.101409 -0.441885 0.186829 0.383956 -0.106950 -0.619468 -0.004611 -0.445354 0.309552 0.709614 -0.383282 -0.128720 -0.120539 -0.441785 -0.296673 0.196358 -0.236953 0.001007 0.309921 0.601565 0.318604 0.040770 -0.612179 -0.171741 0.868176 0.459692 -0.301501 -0.186946 -0.239360 -0.044014 0.048433
Thou 0.627922 -0.391615 -0.237037 -0.444728 0.156064 -0.202915 -0.475143 -0.720860 0.045332 0.689269 0.163498 0.550298 0.232180 -0.580596 -0.010069 -0.585779 -0.928476 -0.821392 0.615792 -0.411671 0.079322 -0.052061 -0.278021 -0.091114 0.635006 0.192583 -0.303073 0.621884 0.100513 -0.371757 0.464377 -0.611264 -0.537025 0.034527 -0.828677 -0.356433 -0.822066 0.204772 -0.034381 -0.514262 -0.635716 0.053108 0.242521 -0.323371 -0.910387 -0.349536 0.000168 0.189162 -0.771456 0.647444
oon -0.474721 -0.149060 0.108350 0.488807 0.199058 0.011609 -0.565911 0.433928 0.302491 -0.081120 -0.385443 0.261936 0.071339 -0.366649 -0.452672 -0.037490 0.041943 -0.048104 0.083255 0.257436 0.116849 -0.188074 -0.297146 -0.298132 0.242460 -0.469271 -0.259380 -0.535812 -0.044126 0.001292 -0.186562 -0.342567 0.324581 -0.252071 0.582785 -0.050995 0.199789 0.282177 0.977012 -0.105487 0.178675 -0.220395 0.613156 0.371815 -0.249114 0.224126 0.317467 0.538901 0.304049 0.183875
thilke -0.304639 0.141246 0.145166 0.304116 0.098501 0.181497 -0.389418 0.497205 -0.259045 -0.026082 -0.062049 0.536429 0.010957 0.126630 0.270705 0.277435 -0.003930 -0.047162 0.258117 0.037993 -0.041449 0.052791 0.433228 -0.171850 -0.396821 -0.066795 -0.077511 0.076248 -0.119269 -0.225343 0.363385 0.400283 0.264258 -0.116050 0.465088 -0.371635 0.188078 0.284718 0.666732 0.289950 0.096127 -0.270507 0.456722 0.366947 -0.101064 0.265854 0.317289 0.061800 0.335422 -0.344995
"I 0.108488 -0.143928 -0.363913 -1.077433 0.713021 -0.017774 0.081874 -0.728191 -0.499066 1.069894 0.308957 0.603005 0.228447 -0.437192 0.345267 -0.611986 0.189564 0.007406 0.389824 -0.576833 -0.519865 0.197021 -0.358752 0.629420 -0.905101 0.008643 -0.081752 0.160143 -0.535398 -0.125342 -0.098326 0.154655 0.000735 0.825199 -1.557959 -0.011510 0.096783 -0.834451 0.061745 -1.085400 -0.098473 -0.024438 0.411629 -0.447760 0.021368 0.036697 0.402496 -0.597780 -0.522276 -0.073672
Goddes -0.179191 -0.073289 -0.208034 0.406041 -0.279993 -0.687769 0.325686 0.431180 -0.224072 0.081871 -0.104352 -0.382797 -0.130010 0.104317 0.364826 0.273218 -0.517087 0.188373 0.057180 0.229425 -0.067939 0.472818 0.550279 -0.574995 -0.175312 -0.094664 -0.746232 -0.055224 0.557855 -0.110470 0.143011 0.644840 -0.478750 -0.024594 0.520507 -0.009522 0.072110 0.053937 0.989692 -0.226847 -0.044054 -0.320054 0.131056 -0.124385 0.487786 0.117223 -0.091939 0.542866 0.241888 -0.237281
had -0.347946 0.538150 0.135868 -0.545758 0.268350 0.813206 -0.188420 0.189345 -0.131709 -0.218219 -0.418512 0.151640 0.223882 -0.058704 -0.797191 0.188355 0.262995 -0.013266 -0.321216 -0.624132 -0.079788 -0.051573 -0.102910 0.152492 -0.103097 -0.060835 0.518909 -0.081587 -0.323265 0.179262 0.106711 -0.392636 0.805837 0.050459 -0.145680 -0.110986 -0.130271 0.088299 0.249104 -0.003070 0.127275 -0.195247 0.176446 0.146421 -0.176747 -0.396942 -0.334333 -0.186483 -0.007348 0.064230
lord 0.028057 -0.187715 0.224086 0.312176 -0.038685 -0.106214 0.111914 0.445465 0.060695 0.004806 0.378430 0.415249 0.174089 -0.065136 -0.155974 0.188601 -0.170680 0.462122 0.603153 0.193250 -0.171385 0.052129 0.580111 -0.081376 -0.079670 -0.116960 -0.092568 -0.395439 0.117354 -0.527466 -0.256180 -0.120702 -0.105342 0.175556 -0.277983 -0.236324 0.001547 -0.040383 0.691343 0.113535 0.026834 -0.360116 0.409698 0.479190 -0.503909 -0.243505 0.324353 0.221750 -0.021539 -0.229526
speke -0.134220 0.196966 0.365442 -0.247003 0.205338 -0.029615 -0.306820 -0.014316 0.262087 0.452154 -0.160240 -0.111608 0.631548 -0.390984 -0.838803 -0.312272 0.476926 0.314833 -0.049919 -0.301306 -0.417501 0.512988 0.006132 0.048592 -0.125607 -0.244983 0.306735 -0.216307 -0.121086 -0.050105 -0.162083 -0.078284 0.336973 0.341781 -0.436094 0.500074 -0.014391 -0.127795 0.521615 -0.310258 0.277699 -0.056998 0.199015 -0.405002 -0.154661 -0.109303 0.415096 0.123361 -0.111778 0.106503
It 0.039658 -0.142939 0.042986 -0.316988 -0.391925 0.036952 0.305264 0.228575 -0.040520 0.377454 0.094903 0.207631 0.482971 -0.422471 -0.294462 0.600890 -0.375584 0.179683 0.477289 -0.372163 0.058633 0.496887 0.128410 -0.298645 0.595949 -0.041716 0.636553 0.264981 -0.387659 0.131756 0.374161 -0.101134 -0.569398 0.127176 -0.036378 -0.130780 -0.790507 -0.206687 0.413525 0.045186 0.150617 -0.466130 0.068985 -0.266440 -0.123674 -0.465099 -0.110455 0.409351 -0.461927 -0.142773
take -0.043979 0.107067 0.391951 0.009297 -0.082335 -0.006587 -0.438398 0.116641 -0.190974 0.184212 -0.083999 0.134636 0.763561 -0.121009 -0.740362 -0.079731 0.303238 0.365747 -0.036748 -0.123879 0.166872 0.333584 0.023939 -0.363531 0.045769 -0.028892 0.383469 -0.195898 0.139817 0.215071 0.020395 -0.396506 -0.153721 0.490166 -0.032586 0.450801 -0.239604 0.158521 0.299034 0.376475 -0.077326 0.011648 0.047931 -0.111159 -0.254738 -0.423305 0.328722 -0.288988 -0.281492 0.242288
God, 0.114884 0.063760 -0.031250 0.177466 0.433472 0.076826 -0.221387 -0.325231 0.259716 0.647164 0.193546 0.513290 0.601721 0.225489 0.200977 0.447646 -0.088772 0.023434 0.147011 -0.061491 -0.248322 0.417597 0.547689 -0.124889 -0.430506 0.686515 -0.538951 0.328796 -0.073730 -0.515346 0.457264 -0.050581 -0.216736 0.562309 -0.324543 0.310738 -0.424726 0.102708 0.695240 -0.116773 0.407011 -0.348533 0.112198 0.384738 -0.460443 0.221515 0.406155 -0.172219 -0.105513 -0.183528
Upon -0.064462 0.001054 0.163104 0.173364 0.062217 -0.353291 -0.274782 0.561041 -0.430151 -0.176213 0.219420 0.109103 -0.031622 0.014302 -0.403732 0.208229 0.328592 0.192209 0.140933 0.059670 -0.344171 0.084715 0.264353 -0.024055 -0.699803 0.062519 0.129173 -0.131556 -0.126639 -0.250622 -0.204480 0.027716 0.194525 -0.163620 -0.112324 -0.286885 0.406397 0.183298 0.469738 0.426031 0.208040 0.075057 0.393872 0.297844 -0.178423 -0.208778 0.258544 0.015503 0.100416 0.046346
som -0.128167 0.184829 -0.107901 -0.075714 0.264333 0.010868 -0.719562 0.141899 0.077736 0.167962 -0.397260 0.254105 0.196384 -0.221349 -0.489135 -0.156100 0.271968 0.240249 -0.004841 0.132104 0.161029 0.339455 -0.051419 0.075772 -0.195943 -0.128517 0.171988 -0.277359 -0.153086 -0.142769 0.159171 -0.122979 0.116895 -0.229687 0.500803 -0.158117 -0.216852 0.107843 0.319996 0.166450 0.176622 0.075930 0.532689 -0.179271 -0.280768 0.530989 0.116020 0.077958 0.214662 0.360818
Ye 0.115848 0.458617 -0.115874 -0.515366 0.249321 0.742191 -0.118776 -0.309695 0.296708 0.146007 -0.444773 0.562905 0.239599 0.441113 -0.732256 -0.869106 -0.369535 -0.276802 0.034036 -0.926647 0.188768 0.411110 0.065883 -0.146677 0.609074 0.074390 0.047838 -0.366806 -0.006805 0.016071 0.727862 -0.671769 0.478816 0.297540 -0.120655 -0.046530 -0.816098 -0.213928 0.271739 -0.764093 -0.372480 -0.592752 -0.004805 -0.764456 -0.636398 -0.443806 0.077572 -0.731995 -0.131338 0.296253
cause -0.359334 -0.634934 -0.164740 0.411488 0.347700 -0.142129 -0.232356 0.304200 -0.026180 0.469449 -0.155069 0.892184 0.639620 0.079991 0.274820 0.632161 0.124039 -0.029443 -0.212264 0.164500 0.008514 0.324490 0.154859 -0.393210 -0.576601 0.522086 -0.477962 -0.148018 -0.129705 -0.141757 0.115590 -0.152756 -0.421215 0.225040 0.468876 0.304483 0.016897 -0.049183 0.797730 -0.127400 0.340374 -0.093446 0.223910 0.085446 0.010393 0.286028 0.693342 0.258437 0.428707 0.216784
moot -0.169925 -0.079095 -0.347283 -0.061818 0.183168 0.613861 0.021732 -0.167276 0.302943 0.096729 -0.241411 0.068498 0.268156 -0.062090 -0.176758 0.164563 -0.149012 0.046899 0.049820 0.037837 0.033946 -0.124140 -0.439819 0.154767 0.272078 -0.144422 0.180636 -0.071946 -0.372360 0.113557 -0.063461 -0.156836 0.260878 0.262718 -0.223381 0.298901 -0.212589 -0.189739 0.511594 -0.295859 0.057022 -0.005280 0.222169 0.203388 -0.237823 -0.091120 -0.002139 0.119472 0.042589 -0.263642
shalt 0.357306 -0.605174 0.015668 -0.465256 0.250842 -0.079415 -0.587967 -0.821768 0.017391 0.913221 -0.091343 0.796762 0.367072 -0.746318 -0.216865 -0.617454 -0.766800 -0.758720 0.547315 -0.643732 0.186986 0.094357 -0.243975 -0.090092 0.711502 0.386640 -0.402732 0.446127 -0.039368 -0.072150 0.552068 -0.709814 -0.905290 0.123329 -0.626957 -0.230155 -1.047592 0.009391 0.208081 -0.284550 -0.766379 0.064227 0.268936 -0.557918 -0.855054 -0.258846 0.399834 -0.175450 -0.525212 0.908769
woot -0.061270 0.017332 -0.210313 -0.358087 0.120520 0.499045 0.189378 0.319232 -0.034072 0.461585 -0.161217 0.341089 0.295363 -0.077295 0.243949 -0.335593 -0.064206 0.286543 0.723699 -0.210400 -0.104484 0.264928 0.313890 0.147181 0.691456 -0.234336 0.497275 -0.011011 -0.412757 -0.386827 -0.044362 0.024295 -0.258639 0.449893 -0.165427 -0.158304 -0.635357 -0.818706 0.751758 -0.801912 0.257407 -0.556320 0.295827 -0.430290 -0.141463 -0.317852 0.711277 0.071185 -0.117341 0.083681
yow, -0.062513 0.173130 0.281778 0.092812 0.438618 0.049361 -0.128369 -0.329616 0.311806 0.355257 0.376015 0.075333 0.644814 0.027145 0.069677 -0.043980 -0.145255 0.569641 -0.020049 -0.076474 -0.540914 0.786268 0.524589 0.144007 0.127263 0.090555 -0.388137 0.037019 -0.083739 -0.449258 -0.066687 0.369499 -0.272718 1.001106 -0.292063 0.551938 -0.247426 -0.350349 0.201655 -0.398206 0.315531 -0.742764 0.136035 -0.216544 -0.374920 0.141427 0.050052 -0.528301 -0.342385 -0.518107
withouten -0.111433 -0.212345 -0.008338 0.067173 -0.112596 -0.090873 -0.036845 0.040806 0.454381 -0.265744 -0.256300 0.228817 0.018198 -0.027929 -0.184406 -0.336315 -0.072323 0.180051 0.000348 0.609477 0.132424 0.377042 -0.152730 0.063842 0.334887 -0.281740 0.037397 -0.231491 -0.500130 -0.258843 0.004220 0.162440 0.003662 -0.028873 0.773800 0.136711 -0.364435 0.109583 0.065879 0.082298 0.369165 0.193825 0.389064 -0.087916 -0.225449 0.716553 -0.122194 0.122656 0.185171 0.018587
lat 0.299004 0.301342 0.187576 -0.254786 -0.167473 -0.341424 -0.305617 -0.071498 0.093588 0.568046 0.215088 0.561263 0.429245 0.127334 -0.089381 -0.593701 0.410180 0.069318 0.146937 -0.497782 -0.275607 -0.055444 -0.018853 0.128849 -0.032513 -0.176553 -0.025178 0.428195 0.516893 -0.198991 0.116070 -0.080754 -0.231615 0.417931 -0.687935 0.635107 -0.185530 -0.497627 0.171166 -0.431046 0.433661 -0.090158 -0.049072 -0.239785 -0.066161 -0.247454 0.699054 -0.112197 -0.334372 -0.048284
seyn, -0.101950 -0.019590 0.500746 -0.221679 -0.518241 -0.238633 0.454029 0.816918 -0.733686 0.218219 0.281137 0.635812 0.418366 -0.054090 0.065390 0.075681 0.267121 0.342247 0.023123 -0.392595 -0.200021 0.529017 0.486427 -0.216172 -0.142228 0.020440 0.406371 -0.048427 -0.081674 -0.157230 0.104834 0.320385 -0.296708 0.490200 0.501439 -0.049183 -0.262382 -0.281882 0.271371 0.347134 0.152636 -0.203797 0.202836 -0.252442 0.242702 -0.157216 -0.097046 -0.313456 -0.299154 -0.435561
wole -0.017330 0.262991 -0.010793 -0.363699 0.289403 0.126456 -0.437054 -0.289677 0.179942 0.468097 -0.090276 0.087194 0.472194 -0.063918 -0.099397 -0.258811 0.171609 0.036520 0.031460 -0.506995 -0.115016 0.344763 0.229022 0.034037 -0.172728 0.246906 -0.008042 -0.031593 0.056084 -0.253701 0.154223 -0.205536 -0.000972 0.222261 -0.398531 0.236919 -0.361178 -0.156239 0.329270 -0.409823 -0.016634 -0.075406 0.066027 -0.301377 -0.257589 -0.023898 0.250894 -0.176584 -0.142197 0.222082
Which -0.200978 -0.026261 0.161096 -0.146528 0.034598 0.305175 0.037578 0.518691 -0.337598 0.426321 -0.302477 0.326858 0.317837 -0.314147 0.028326 0.307954 0.133966 -0.222997 0.482298 -0.255631 -0.114994 -0.095894 0.100458 0.017842 -0.225739 -0.099776 0.378131 0.114848 -0.336229 -0.005383 0.118700 0.128282 0.423900 0.032998 -0.047299 -0.315110 0.056019 -0.004504 0.573107 0.121007 0.091018 -0.162295 0.306621 0.245122 0.121387 -0.221681 0.447565 0.074503 -0.098025 -0.056736
another 0.009326 -0.181281 -0.016627 0.246067 -0.362408 -0.103690 0.082483 0.827467 -0.053305 -0.236576 0.332574 0.101870 0.035536 -0.204308 -0.147619 -0.217249 0.330857 0.373973 0.531008 0.438232 0.016363 -0.150132 -0.214181 -0.360448 0.095487 -0.422979 0.476941 -0.422256 0.260860 -0.185991 -0.344731 0.134715 0.025234 -0.275366 0.460901 0.091934 0.412880 0.507932 0.624063 0.096324 0.518723 0.532294 0.457253 -0.233118 0.143495 0.030249 -0.185929 0.409787 0.286162 0.180325
Thus -0.428549 -0.006609 0.021724 -0.345405 0.347488 0.734606 0.044074 0.149834 -0.081490 0.192728 -0.272565 0.381256 0.022161 -0.030914 -0.347825 0.093570 0.363779 0.051620 -0.027238 -0.333665 -0.158392 -0.433757 -0.234097 0.444934 -0.009265 -0.236053 0.698604 -0.084548 -0.206644 0.119226 -0.080087 -0.107868 0.535709 0.013719 -0.477678 -0.301622 -0.031775 -0.305596 0.499142 0.011528 -0.092426 0.108613 0.196329 0.173576 -0.094022 -0.245641 0.251840 -0.158331 0.318494 0.006328
was, -0.343365 -0.303064 0.200206 -0.586277 -0.168412 -0.085111 0.055711 0.280293 0.102008 0.005948 -0.381178 0.111520 -0.190094 0.018636 -0.045567 0.177866 -0.044427 -0.118509 -0.068267 -0.022153 -0.201784 -0.293595 -0.210728 -0.103449 0.064025 -0.297087 0.466168 0.075355 -0.177564 -0.212472 0.162909 -0.136092 0.324848 -0.098774 0.343059 0.070475 -0.345424 0.064132 0.918034 -0.450089 0.124697 0.075137 0.283238 0.220813 -0.147510 -0.278326 0.066801 0.407707 0.052450 0.182156
wordes -0.015099 -0.155076 0.366266 0.330496 -0.110250 -0.222727 0.069692 0.118352 0.406057 -0.082098 -0.400903 0.265117 0.051370 0.357516 -0.195313 -0.245112 0.157331 0.172465 -0.180517 0.007887 0.048075 0.061118 -0.042398 0.057939 -0.374554 -0.010377 -0.043793 -0.215601 0.017625 -0.114253 0.029261 -0.178579 0.332793 -0.007944 0.604479 0.113480 -0.107878 0.273998 0.180629 -0.035754 0.273412 0.051487 -0.018436 0.263820 0.113389 0.085626 0.041074 -0.224998 0.316818 0.194653
into -0.060708 -0.114029 -0.028883 0.274322 -0.061024 -0.130775 -0.328056 0.195830 0.012086 -0.250881 -0.149718 0.101061 0.064478 0.184199 -0.285173 0.129982 0.149940 -0.423013 -0.157186 -0.076956 0.096475 -0.267383 -0.362345 -0.084224 -0.166134 0.023513 -0.090048 0.132449 -0.039182 0.179213 -0.139979 -0.386438 0.361216 -0.123055 0.017585 0.002168 0.232842 0.284245 0.018553 0.130476 0.133295 0.009358 -0.014263 0.485999 0.072420 -0.219271 0.048109 -0.115855 0.032505 0.318871
How -0.142981 -0.201716 -0.012278 -0.190638 0.210380 0.313281 -0.000742 0.137699 -0.284779 0.300110 -0.406064 0.226575 0.159516 -0.179569 -0.002114 0.238190 0.085828 -0.203044 0.333445 -0.130259 0.035415 -0.384259 -0.178256 0.079165 -0.164218 -0.005422 0.556148 0.096298 -0.407415 0.020275 0.206107 -0.079124 0.287520 -0.067368 -0.221245 -0.321743 -0.221717 0.075529 0.509765 0.134723 -0.172025 0.038467 0.091346 0.368109 -0.010438 -0.287761 0.156709 -0.034425 -0.114845 0.094335
heere 0.024771 0.179537 0.133905 0.204872 0.131852 -0.098448 -0.270934 0.124262 -0.224142 0.235195 0.077106 0.152772 0.300751 -0.160255 -0.283084 -0.511207 0.009648 0.132399 0.157620 -0.334326 -0.121034 0.331908 -0.007542 0.055817 0.048372 -0.094566 -0.020954 0.200649 0.099541 -0.008078 -0.070605 -0.034553 -0.144744 0.153708 -0.243048 -0.148015 -0.036356 -0.019058 0.090751 0.012646 0.085131 -0.291394 0.206388 0.016126 0.040624 -0.317868 0.058911 -0.418888 -0.300748 0.081122
seyn 0.198457 0.133285 0.369881 -0.614464 0.193965 0.513513 -0.096165 0.028192 0.140253 0.302519 -0.391996 0.501460 0.212983 0.069206 -0.669695 -0.505592 -0.002508 -0.247289 0.151104 -0.522889 -0.054041 0.229000 0.387675 0.073659 0.009631 -0.084746 0.360641 -0.267267 -0.101857 -0.123534 0.401679 -0.505251 0.549756 0.179857 0.006305 -0.073744 -0.384075 -0.336957 0.385863 -0.526327 -0.219592 -0.351195 0.217258 -0.533884 -0.363803 -0.390846 0.624515 -0.040506 0.027351 0.239516
Unto -0.086845 -0.106314 0.214915 -0.022404 -0.011270 -0.221794 -0.111345 0.269617 -0.011370 -0.040703 0.212168 0.221403 0.033887 0.171034 -0.359302 0.291455 0.243118 -0.087354 -0.063498 -0.237502 -0.199526 0.279383 0.111817 -0.067365 -0.352307 0.189672 -0.244694 -0.057240 -0.166979 0.073830 -0.227380 -0.057793 -0.054895 -0.002834 0.069628 -0.095705 0.287552 0.074421 0.299756 0.171641 0.352107 -0.087114 0.251187 0.241056 -0.080638 -0.082831 0.337924 -0.066401 0.335610 0.365141
heigh 0.214530 -0.119014 -0.159235 0.255640 -0.115707 -0.078742 0.270641 0.068114 0.184532 -0.267903 0.298533 -0.316074 -0.172342 0.028191 -0.255314 0.078300 0.032124 0.490885 0.474069 0.367139 -0.049092 -0.223403 0.099255 -0.249317 0.250643 0.061130 0.075606 -0.220344 0.368594 -0.341302 -0.255764 -0.113511 -0.451888 -0.158508 -0.126986 -0.156996 0.071641 0.303318 0.499737 0.183553 0.097648 0.248208 0.127618 0.360400 -0.268121 -0.225722 -0.377234 0.151545 0.127766 0.296561
kyng -0.251867 -0.148469 0.445292 -0.036432 -0.259226 -0.139089 -0.123949 0.743561 -0.509126 0.105090 0.571430 0.672611 0.008090 -0.098866 0.060644 0.511287 0.690880 -0.032130 -0.094726 -0.146402 -0.062719 -0.259521 0.171224 -0.299305 -0.484080 -0.026727 -0.125648 -0.189575 0.212684 0.148179 -0.176790 0.366453 0.101039 -0.048998 -0.065187 -0.497108 0.645361 0.202592 0.078195 0.521243 0.023726 0.399978 0.160587 0.264983 0.281290 0.302597 0.119312 0.422484 0.437691 -0.251900
therfore 0.471230 -0.121850 -0.118810 -0.118248 0.244322 0.193342 -0.119358 0.261282 -0.511692 0.594125 -0.201339 0.596189 0.221141 -0.218873 -0.025480 -0.675912 0.279439 -0.279220 0.948312 -0.369508 -0.151795 -0.208874 0.189238 0.540759 -0.708485 0.019215 0.505773 0.399479 -0.323499 -0.318278 -0.024008 0.221931 0.326093 0.074606 -0.774130 -0.135773 -0.094752 -0.430821 0.501437 -0.397922 0.203596 0.334060 0.461424 -0.263402 0.084510 -0.479690 0.788113 -0.243040 -0.407081 0.233757
from 0.062306 0.223598 0.022606 0.564247 -0.266891 -0.240832 -0.434206 0.388532 -0.171713 -0.285651 -0.286155 -0.090081 0.489801 -0.161992 -0.428511 -0.105578 0.341930 -0.147091 0.119340 0.284361 0.138613 -0.450958 0.124853 -0.336304 -0.221138 -0.219449 0.237264 0.007912 0.254848 -0.008526 -0.106591 -0.223583 0.460988 -0.004328 -0.104406 0.369661 0.226268 0.318158 0.253319 0.536298 0.102510 0.236721 -0.085351 0.468081 0.021173 -0.389357 0.008805 0.015612 -0.273638 -0.096336
